{"learner":{"attributes":{"scikit_learn":"{\"_estimator_type\": \"classifier\"}"},"feature_names":[],"feature_types":[],"gradient_booster":{"model":{"gbtree_model_param":{"num_parallel_tree":"1","num_trees":"100"},"iteration_indptr":[0,1,2,3,4,5,6,7,8,9,10,11,12,13,14,15,16,17,18,19,20,21,22,23,24,25,26,27,28,29,30,31,32,33,34,35,36,37,38,39,40,41,42,43,44,45,46,47,48,49,50,51,52,53,54,55,56,57,58,59,60,61,62,63,64,65,66,67,68,69,70,71,72,73,74,75,76,77,78,79,80,81,82,83,84,85,86,87,88,89,90,91,92,93,94,95,96,97,98,99,100],"tree_info":[0,0,0,0,0,0,0,0,0,0,0,0,0,0,0,0,0,0,0,0,0,0,0,0,0,0,0,0,0,0,0,0,0,0,0,0,0,0,0,0,0,0,0,0,0,0,0,0,0,0,0,0,0,0,0,0,0,0,0,0,0,0,0,0,0,0,0,0,0,0,0,0,0,0,0,0,0,0,0,0,0,0,0,0,0,0,0,0,0,0,0,0,0,0,0,0,0,0,0,0],"trees":[{"base_weights":[-3.0586767E-1,2.0419452E0,-1.200647E0,1.0405389E0,4.0998716E0,-2.1008879E-1,-1.240123E0,3.8130362E0,-1.1715609E-1,4.5377555E0,2.960934E0,-3.7178427E-1,8.3426815E-1,-1.0454695E0,-3.7350145E-1,1.2324529E0,5.9038657E-1,2.8998956E-1,-3.661794E-1,1.4567174E0,1.2293929E0,9.258443E-1,-2.8831108E-2,6.6625834E-1,2.799714E-2,1.2553804E-2,-3.4361863E-1],"categories":[],"categories_nodes":[],"categories_segments":[],"categories_sizes":[],"default_left":[0,0,0,0,0,0,0,0,0,0,0,0,0,0,0,0,0,0,0,0,0,0,0,0,0,0,0],"id":0,"left_children":[1,3,5,7,9,11,13,15,17,19,21,-1,23,25,-1,-1,-1,-1,-1,-1,-1,-1,-1,-1,-1,-1,-1],"loss_changes":[3.1869428E4,8.622807E3,4.292461E2,9.043154E3,6.697832E2,4.54792E2,8.735352E0,4.4384668E2,2.3790942E3,1.1820703E2,1.4702002E2,0E0,2.1568274E2,2.8804138E1,0E0,0E0,0E0,0E0,0E0,0E0,0E0,0E0,0E0,0E0,0E0,0E0,0E0],"parents":[2147483647,0,0,1,1,2,2,3,3,4,4,5,5,6,6,7,7,8,8,9,9,10,10,12,12,13,13],"right_children":[2,4,6,8,10,12,14,16,18,20,22,-1,24,26,-1,-1,-1,-1,-1,-1,-1,-1,-1,-1,-1,-1,-1],"split_conditions":[2.376E1,3.8E1,2.43E1,1.955E1,2.302E1,3.8E1,2.468E1,6.565E1,2.18E1,2.232E1,2.55E1,-3.7178427E-1,2.436E1,2.406E1,-3.7350145E-1,1.2324529E0,5.9038657E-1,2.8998956E-1,-3.661794E-1,1.4567174E0,1.2293929E0,9.258443E-1,-2.8831108E-2,6.6625834E-1,2.799714E-2,1.2553804E-2,-3.4361863E-1],"split_indices":[3,4,3,6,3,4,3,2,6,3,6,0,6,6,0,0,0,0,0,0,0,0,0,0,0,0,0],"split_type":[0,0,0,0,0,0,0,0,0,0,0,0,0,0,0,0,0,0,0,0,0,0,0,0,0,0,0],"sum_hessian":[1.5168154E4,4.185233E3,1.0982921E4,2.8163005E3,1.3689326E3,4.2116187E2,1.056176E4,8.2890643E2,1.987394E3,9.8662415E2,3.823084E2,2.1202702E2,2.0913484E2,2.6366565E2,1.0298094E4,7.1354144E2,1.1536499E2,1.0026887E3,9.847053E2,5.66786E2,4.1983813E2,3.672564E2,1.5052021E1,7.213852E1,1.3699634E2,2.2240702E1,2.4142494E2],"tree_param":{"num_deleted":"0","num_feature":"12","num_nodes":"27","size_leaf_vector":"1"}},{"base_weights":[-3.308445E-1,9.255953E-1,-1.1357671E0,2.973649E-1,1.4322526E0,-3.3756232E-1,-1.162673E0,1.532435E0,-1.0981423E0,3.6005666E0,1.2971332E0,-3.477723E-1,2.7382842E-1,-9.373103E-1,-3.5057393E-1,4.8407143E-1,-3.0392018E-1,6.3866325E-2,-3.670272E-1,-2.8169447E-1,1.1006211E0,1.20710924E-1,4.6911517E-1,-1.3955933E-2,6.1586165E-1,8.871303E-3,-3.1480742E-1],"categories":[],"categories_nodes":[],"categories_segments":[],"categories_sizes":[],"default_left":[0,0,0,0,0,0,0,0,0,0,0,0,0,0,0,0,0,0,0,0,0,0,0,0,0,0,0],"id":1,"left_children":[1,3,5,7,9,11,13,15,17,19,21,-1,23,25,-1,-1,-1,-1,-1,-1,-1,-1,-1,-1,-1,-1,-1],"loss_changes":[1.4170824E4,1.7411558E3,1.8302539E2,4.21399E3,8.82647E2,1.4093018E2,9.901367E0,2.694934E2,1.8882385E2,5.8248047E1,6.7977295E2,0E0,9.2019966E1,2.3437729E1,0E0,0E0,0E0,0E0,0E0,0E0,0E0,0E0,0E0,0E0,0E0,0E0,0E0],"parents":[2147483647,0,0,1,1,2,2,3,3,4,4,5,5,6,6,7,7,8,8,9,9,10,10,12,12,13,13],"right_children":[2,4,6,8,10,12,14,16,18,20,22,-1,24,26,-1,-1,-1,-1,-1,-1,-1,-1,-1,-1,-1,-1,-1],"split_conditions":[2.392E1,3.5E1,2.43E1,1.908E1,2.06E1,3.8E1,2.468E1,1.99E1,1.955E1,3.2E1,3.8E1,-3.477723E-1,2.787E1,2.406E1,-3.5057393E-1,4.8407143E-1,-3.0392018E-1,6.3866325E-2,-3.670272E-1,-2.8169447E-1,1.1006211E0,1.20710924E-1,4.6911517E-1,-1.3955933E-2,6.1586165E-1,8.871303E-3,-3.1480742E-1],"split_indices":[3,4,3,3,6,4,3,6,6,0,4,0,10,6,0,0,0,0,0,0,0,0,0,0,0,0,0],"split_type":[0,0,0,0,0,0,0,0,0,0,0,0,0,0,0,0,0,0,0,0,0,0,0,0,0,0,0],"sum_hessian":[1.4009934E4,5.4705527E3,8.539381E3,2.4429727E3,3.0275803E3,2.789006E2,8.26048E3,1.2959319E3,1.1470409E3,1.7609332E2,2.8514868E3,1.1860514E2,1.6029547E2,2.1505467E2,8.0454253E3,1.2562556E3,3.9676277E1,9.9989136E1,1.0470518E3,2.4162705E0,1.7367706E2,6.5512634E2,2.1963606E3,1.3666109E2,2.3634386E1,2.2410059E1,1.926446E2],"tree_param":{"num_deleted":"0","num_feature":"12","num_nodes":"27","size_leaf_vector":"1"}},{"base_weights":[-3.087578E-1,6.2861985E-1,-1.0954375E0,1.1982756E-1,9.69179E-1,-6.159729E-1,-3.3534762E-1,1.8115348E0,-7.385192E-3,5.855909E-1,1.1693766E0,-3.3807805E-1,-1.414701E-1,5.5164415E-1,-2.727691E-1,-1.1664009E-1,2.1723561E-1,4.04533E-1,-3.3639905E-1,5.417471E-1,2.7282584E-1,4.1086754E-1,-1.7816016E-1],"categories":[],"categories_nodes":[],"categories_segments":[],"categories_sizes":[],"default_left":[0,0,0,0,0,0,0,0,0,0,0,0,0,0,0,0,0,0,0,0,0,0,0],"id":2,"left_children":[1,3,5,7,9,11,-1,13,15,17,19,-1,21,-1,-1,-1,-1,-1,-1,-1,-1,-1,-1],"loss_changes":[8.828744E3,9.4651807E2,6.918359E1,4.716813E2,2.5062402E2,7.078442E1,0E0,1.3048889E1,5.6929E2,1.4654321E3,3.5395386E2,0E0,1.0530752E2,0E0,0E0,0E0,0E0,0E0,0E0,0E0,0E0,0E0,0E0],"parents":[2147483647,0,0,1,1,2,2,3,3,4,4,5,5,7,7,8,8,9,9,10,10,12,12],"right_children":[2,4,6,8,10,12,-1,14,16,18,20,-1,22,-1,-1,-1,-1,-1,-1,-1,-1,-1,-1],"split_conditions":[2.407E1,1.91E1,2.461E1,1.802E1,3.5E1,3.8E1,-3.3534762E-1,8.101E1,3.8E1,1.99E1,2.152E1,-3.3807805E-1,2.422E1,5.5164415E-1,-2.727691E-1,-1.1664009E-1,2.1723561E-1,4.04533E-1,-3.3639905E-1,5.417471E-1,2.7282584E-1,4.1086754E-1,-1.7816016E-1],"split_indices":[3,1,3,6,4,4,0,2,4,6,3,0,6,0,0,0,0,0,0,0,0,0,0],"split_type":[0,0,0,0,0,0,0,0,0,0,0,0,0,0,0,0,0,0,0,0,0,0,0],"sum_hessian":[1.1970606E4,5.4622266E3,6.5083804E3,2.1906968E3,3.2715298E3,2.9161343E2,6.216767E3,1.5228831E2,2.0384084E3,1.1232515E3,2.1482783E3,1.397514E2,1.5186205E2,1.5109753E2,1.1907779E0,1.3401212E3,6.9828723E2,7.764518E2,3.4679965E2,6.2127606E2,1.5270021E3,3.4523735E1,1.1733831E2],"tree_param":{"num_deleted":"0","num_feature":"12","num_nodes":"23","size_leaf_vector":"1"}},{"base_weights":[-2.8015152E-1,4.5387065E-1,-1.0646539E0,-2.1489328E-1,6.1592686E-1,-6.1407346E-1,-1.0836042E0,6.7341244E-1,-6.2503695E-1,7.824953E-1,1.2188975E-1,-7.844057E-1,5.0208354E-1,-8.446222E-1,-3.2542306E-1,4.3252832E-1,1.1088134E-1,-3.1670302E-1,9.750558E-2,1.6881533E-1,3.5378847E-1,-3.5079357E-1,1.4885192E-1,6.7845015E-3,-2.9100654E-1,4.4866678E-1,-3.2850915E-1,4.839932E-1,-3.1531256E-1],"categories":[],"categories_nodes":[],"categories_segments":[],"categories_sizes":[],"default_left":[0,0,0,0,0,0,0,0,0,0,0,0,0,0,0,0,0,0,0,0,0,0,0,0,0,0,0,0,0],"id":3,"left_children":[1,3,5,7,9,11,13,15,17,19,21,23,25,27,-1,-1,-1,-1,-1,-1,-1,-1,-1,-1,-1,-1,-1,-1,-1],"loss_changes":[5.8716836E3,5.710748E2,4.1419434E1,3.7506955E2,3.4888306E2,3.8651833E1,3.7109375E-1,7.5401306E1,2.8837878E2,2.7589832E2,5.179153E2,2.6233261E1,4.4880005E1,1.5370081E1,0E0,0E0,0E0,0E0,0E0,0E0,0E0,0E0,0E0,0E0,0E0,0E0,0E0,0E0,0E0],"parents":[2147483647,0,0,1,1,2,2,3,3,4,4,5,5,6,6,7,7,8,8,9,9,10,10,11,11,12,12,13,13],"right_children":[2,4,6,8,10,12,14,16,18,20,22,24,26,28,-1,-1,-1,-1,-1,-1,-1,-1,-1,-1,-1,-1,-1,-1,-1],"split_conditions":[2.415E1,1.485E1,2.461E1,1.93E1,2.285E1,2.787E1,2.468E1,1.802E1,3.8E1,3.8E1,3.8E1,2.406E1,2.55E1,2.398E1,-3.2542306E-1,4.3252832E-1,1.1088134E-1,-3.1670302E-1,9.750558E-2,1.6881533E-1,3.5378847E-1,-3.5079357E-1,1.4885192E-1,6.7845015E-3,-2.9100654E-1,4.4866678E-1,-3.2850915E-1,4.839932E-1,-3.1531256E-1],"split_indices":[3,1,3,6,3,10,3,6,4,4,4,6,6,7,0,0,0,0,0,0,0,0,0,0,0,0,0,0,0],"split_type":[0,0,0,0,0,0,0,0,0,0,0,0,0,0,0,0,0,0,0,0,0,0,0,0,0,0,0,0,0],"sum_hessian":[1.0194852E4,5.267097E3,4.927755E3,1.0273138E3,4.239783E3,2.0023335E2,4.7275215E3,3.2429684E2,7.0301697E2,3.170306E3,1.0694772E3,1.7398016E2,2.6253193E1,2.5951818E1,4.70157E3,9.083189E1,2.3346495E2,4.8366904E2,2.1934796E2,2.0418134E3,1.1284927E3,2.3986552E2,8.2961163E2,3.2697258E1,1.412829E2,1.6224474E1,1.0028719E1,1.4825644E0,2.4469255E1],"tree_param":{"num_deleted":"0","num_feature":"12","num_nodes":"29","size_leaf_vector":"1"}},{"base_weights":[-2.5232586E-1,3.3736935E-1,-1.035079E0,9.5809895E-1,2.27593E-1,-5.283759E-1,-1.0596224E0,1.2402618E0,6.578266E-1,-4.9420914E-1,5.218193E-1,-3.2289827E-1,-7.135656E-2,-7.743929E-1,-3.1832135E-1,1.1583843E-1,3.926623E-1,-2.789636E-1,2.3626916E-1,7.920475E-2,-3.3394387E-1,2.9721934E-1,7.4820176E-2,-1.1882404E-1,3.0958855E-1,-3.0646253E-1,3.6794835E-1],"categories":[],"categories_nodes":[],"categories_segments":[],"categories_sizes":[],"default_left":[0,0,0,0,0,0,0,0,0,0,0,0,0,0,0,0,0,0,0,0,0,0,0,0,0,0,0],"id":4,"left_children":[1,3,5,7,9,11,13,15,17,19,21,-1,23,25,-1,-1,-1,-1,-1,-1,-1,-1,-1,-1,-1,-1,-1],"loss_changes":[4.022214E3,3.3845538E2,4.600122E1,6.2438232E1,8.974448E2,4.373897E1,6.538086E-1,2.1984802E1,7.567168E1,5.7465607E2,3.8319E2,0E0,3.4971275E1,1.2005459E1,0E0,0E0,0E0,0E0,0E0,0E0,0E0,0E0,0E0,0E0,0E0,0E0,0E0],"parents":[2147483647,0,0,1,1,2,2,3,3,4,4,5,5,6,6,7,7,8,8,9,9,10,10,12,12,13,13],"right_children":[2,4,6,8,10,12,14,16,18,20,22,-1,24,26,-1,-1,-1,-1,-1,-1,-1,-1,-1,-1,-1,-1,-1],"split_conditions":[2.415E1,1.829E1,2.461E1,1.834E1,3.5E1,3.8E1,2.468E1,9.2E0,1.909E1,1.99E1,2.193E1,-3.2289827E-1,2.723E1,3.31E2,-3.1832135E-1,1.1583843E-1,3.926623E-1,-2.789636E-1,2.3626916E-1,7.920475E-2,-3.3394387E-1,2.9721934E-1,7.4820176E-2,-1.1882404E-1,3.0958855E-1,-3.0646253E-1,3.6794835E-1],"split_indices":[3,3,3,6,4,4,3,10,7,6,3,0,9,0,0,0,0,0,0,0,0,0,0,0,0,0,0],"split_type":[0,0,0,0,0,0,0,0,0,0,0,0,0,0,0,0,0,0,0,0,0,0,0,0,0,0,0],"sum_hessian":[8.712147E3,4.9691533E3,3.7429944E3,7.4557526E2,4.223578E3,1.73966E2,3.5690286E3,3.8276474E2,3.6281055E2,1.2228866E3,3.0006914E3,7.8496315E1,9.5469696E1,2.074353E1,3.548285E3,2.8953966E1,3.538108E2,2.6941166E1,3.3586935E2,5.498589E2,6.730277E2,1.101703E3,1.8989884E3,7.425601E1,2.1213678E1,1.8898634E1,1.8448966E0],"tree_param":{"num_deleted":"0","num_feature":"12","num_nodes":"27","size_leaf_vector":"1"}},{"base_weights":[-2.261159E-1,2.4258381E-1,-1.0278234E0,2.850884E-2,5.451766E-1,-5.955673E-1,-3.132741E-1,3.917879E-1,-1.1511915E0,8.2867044E-1,5.444874E-2,8.824645E-2,-8.9755476E-1,3.1758413E-2,2.398236E-1,2.4549322E-1,-3.5018748E-1,3.0327913E-1,1.5870942E-1,-1.5510176E-1,8.056983E-2,-6.8705834E-2,1.3342054E0,-3.1371203E-1,-2.3856892E-3],"categories":[],"categories_nodes":[],"categories_segments":[],"categories_sizes":[],"default_left":[0,0,0,0,0,0,0,0,0,0,0,0,0,0,0,0,0,0,0,0,0,0,0,0,0],"id":5,"left_children":[1,3,5,7,9,11,-1,13,15,17,19,21,23,-1,-1,-1,-1,-1,-1,-1,-1,-1,-1,-1,-1],"loss_changes":[2.8191394E3,3.0670242E2,1.9028076E1,1.1893345E3,2.7287866E2,2.1481956E1,0E0,2.472049E2,2.1673645E1,6.736957E1,8.816578E1,4.6187683E1,9.478828E0,0E0,0E0,0E0,0E0,0E0,0E0,0E0,0E0,0E0,0E0,0E0,0E0],"parents":[2147483647,0,0,1,1,2,2,3,3,4,4,5,5,7,7,8,8,9,9,10,10,11,11,12,12],"right_children":[2,4,6,8,10,12,-1,14,16,18,20,22,24,-1,-1,-1,-1,-1,-1,-1,-1,-1,-1,-1,-1],"split_conditions":[2.43E1,3.8E1,2.468E1,2.18E1,2.32E1,2.452E1,-3.132741E-1,2.278E1,2.027E1,7.026E1,1.721E1,2.531E1,2.882E1,3.1758413E-2,2.398236E-1,2.4549322E-1,-3.5018748E-1,3.0327913E-1,1.5870942E-1,-1.5510176E-1,8.056983E-2,-6.8705834E-2,1.3342054E0,-3.1371203E-1,-2.3856892E-3],"split_indices":[3,4,3,6,3,6,0,1,3,2,9,7,10,0,0,0,0,0,0,0,0,0,0,0,0],"split_type":[0,0,0,0,0,0,0,0,0,0,0,0,0,0,0,0,0,0,0,0,0,0,0,0,0],"sum_hessian":[7.5008354E3,4.733943E3,2.7668926E3,2.7731323E3,1.9608105E3,1.0264368E2,2.6642488E3,2.1207368E3,6.523956E2,1.2423915E3,7.1841907E2,3.1660389E1,7.098329E1,1.247172E3,8.735648E2,4.8858523E0,6.4750977E2,7.710281E2,4.7136337E2,1.9542842E2,5.229906E2,3.0395588E1,1.2648008E0,6.0699142E1,1.0284148E1],"tree_param":{"num_deleted":"0","num_feature":"12","num_nodes":"25","size_leaf_vector":"1"}},{"base_weights":[-2.0100391E-1,1.831794E-1,-1.0104867E0,2.5853488E-1,-4.7309995E-1,-5.1508695E-1,-3.0963463E-1,1.0700313E0,1.9515845E-1,2.8424352E-1,-6.805272E-1,-3.1157953E-1,-3.15287E-2,8.2381055E-2,3.4791E-1,-5.8033664E-2,1.1149463E-1,-6.265114E-2,3.1521982E-1,-3.0987114E-1,-3.829801E-2,3.0260277E-1,-1.975346E-1],"categories":[],"categories_nodes":[],"categories_segments":[],"categories_sizes":[],"default_left":[0,0,0,0,0,0,0,0,0,0,0,0,0,0,0,0,0,0,0,0,0,0,0],"id":6,"left_children":[1,3,5,7,9,11,-1,13,15,17,19,-1,21,-1,-1,-1,-1,-1,-1,-1,-1,-1,-1],"loss_changes":[2.0121185E3,2.1713219E2,2.1780273E1,2.0225894E2,7.1248436E1,2.2524462E1,0E0,2.0006348E1,2.5060028E2,3.723977E1,6.909787E1,0E0,3.1543722E1,0E0,0E0,0E0,0E0,0E0,0E0,0E0,0E0,0E0,0E0],"parents":[2147483647,0,0,1,1,2,2,3,3,4,4,5,5,7,7,8,8,9,9,10,10,12,12],"right_children":[2,4,6,8,10,12,-1,14,16,18,20,-1,22,-1,-1,-1,-1,-1,-1,-1,-1,-1,-1],"split_conditions":[2.43E1,2.87E2,2.468E1,1.834E1,1.909E1,3.8E1,-3.0963463E-1,4.9E1,3.5E1,1.887E1,3.8E1,-3.1157953E-1,2.452E1,8.2381055E-2,3.4791E-1,-5.8033664E-2,1.1149463E-1,-6.265114E-2,3.1521982E-1,-3.0987114E-1,-3.829801E-2,3.0260277E-1,-1.975346E-1],"split_indices":[3,0,3,6,6,4,0,0,4,6,4,0,6,0,0,0,0,0,0,0,0,0,0],"split_type":[0,0,0,0,0,0,0,0,0,0,0,0,0,0,0,0,0,0,0,0,0,0,0],"sum_hessian":[6.468451E3,4.3870947E3,2.0813564E3,3.9357852E3,4.5130966E2,8.8106705E1,1.9932498E3,2.8396045E2,3.6518247E3,9.69527E1,3.5435696E2,4.1754494E1,4.6352215E1,2.9179417E1,2.5478102E2,1.1405082E3,2.5113164E3,5.94416E1,3.75111E1,2.1588916E2,1.384678E2,1.7201698E1,2.9150517E1],"tree_param":{"num_deleted":"0","num_feature":"12","num_nodes":"23","size_leaf_vector":"1"}},{"base_weights":[-1.7002806E-1,1.2117113E-1,-1.0352087E0,5.507504E-1,1.4965481E-2,-4.4939703E-1,-1.0405567E0,5.982443E-1,-9.956742E-1,-7.282953E-1,2.1788283E-1,4.128874E-1,-5.311772E-1,-4.7515693E-1,-3.0760607E-1,2.0210172E-1,-4.4982858E-2,-1.2183585E-1,-3.411677E-1,-5.569867E-2,-3.278246E-1,1.5627787E-1,-1.2363551E-2,3.0017757E-1,-4.0307552E-1],"categories":[],"categories_nodes":[],"categories_segments":[],"categories_sizes":[],"default_left":[0,0,0,0,0,0,0,0,0,0,0,0,0,0,0,0,0,0,0,0,0,0,0,0,0],"id":7,"left_children":[1,3,5,7,9,11,13,15,17,19,21,23,-1,-1,-1,-1,-1,-1,-1,-1,-1,-1,-1,-1,-1],"loss_changes":[1.4644042E3,1.9842455E2,4.11792E0,6.39144E1,5.262531E2,1.7821613E1,1.0350098E1,4.7339478E1,1.7132282E0,1.4778683E2,2.1522868E2,1.15518465E1,0E0,0E0,0E0,0E0,0E0,0E0,0E0,0E0,0E0,0E0,0E0,0E0,0E0],"parents":[2147483647,0,0,1,1,2,2,3,3,4,4,5,5,6,6,7,7,8,8,9,9,10,10,11,11],"right_children":[2,4,6,8,10,12,14,16,18,20,22,24,-1,-1,-1,-1,-1,-1,-1,-1,-1,-1,-1,-1,-1],"split_conditions":[2.55E1,1.93E1,2.352E1,1.973E1,3.5E1,5.674E1,2.415E1,7.192E1,1.199E1,2.009E1,2.241E1,3.007E1,-5.311772E-1,-4.7515693E-1,-3.0760607E-1,2.0210172E-1,-4.4982858E-2,-1.2183585E-1,-3.411677E-1,-5.569867E-2,-3.278246E-1,1.5627787E-1,-1.2363551E-2,3.0017757E-1,-4.0307552E-1],"split_indices":[6,6,3,3,4,2,3,2,11,6,3,9,0,0,0,0,0,0,0,0,0,0,0,0,0],"split_type":[0,0,0,0,0,0,0,0,0,0,0,0,0,0,0,0,0,0,0,0,0,0,0,0,0],"sum_hessian":[5.811016E3,4.3483315E3,1.4626848E3,8.611158E2,3.4872156E3,1.4001659E1,1.4486832E3,8.3605206E2,2.5063763E1,7.473129E2,2.7399026E3,8.888209E0,5.1134505E0,3.6626366E1,1.4120569E3,7.5957544E2,7.647658E1,5.6017613E0,1.9462002E1,3.008653E2,4.4644763E2,1.262381E3,1.4775216E3,6.982312E0,1.9058968E0],"tree_param":{"num_deleted":"0","num_feature":"12","num_nodes":"25","size_leaf_vector":"1"}},{"base_weights":[-1.4608262E-1,9.5128134E-2,-1.0128913E0,-2.783837E-2,4.1735977E-1,-5.051207E-1,-3.0512038E-1,1.0388064E0,-6.8138376E-2,4.608423E-1,-1.0196292E0,2.8828907E-1,-2.7932695E-1,3.2175007E-1,-3.180059E-1,-8.427209E-2,6.256118E-2,9.009838E-2,2.556389E-1,-2.797656E-4,-3.888969E-1],"categories":[],"categories_nodes":[],"categories_segments":[],"categories_sizes":[],"default_left":[0,0,0,0,0,0,0,0,0,0,0,0,0,0,0,0,0,0,0,0,0],"id":8,"left_children":[1,3,5,7,9,11,-1,13,15,17,19,-1,-1,-1,-1,-1,-1,-1,-1,-1,-1],"loss_changes":[1.0903921E3,1.6169026E2,1.894043E0,1.2706246E2,7.089432E1,7.919634E0,0E0,8.747208E0,1.6769394E2,6.8497025E1,9.417225E0,0E0,0E0,0E0,0E0,0E0,0E0,0E0,0E0,0E0,0E0],"parents":[2147483647,0,0,1,1,2,2,3,3,4,4,5,5,7,7,8,8,9,9,10,10],"right_children":[2,4,6,8,10,12,-1,14,16,18,20,-1,-1,-1,-1,-1,-1,-1,-1,-1,-1],"split_conditions":[2.461E1,2.632E1,2.468E1,1.802E1,2.55E1,2.43E1,-3.0512038E-1,8.101E1,3.8E1,2.658E1,2.336E1,2.8828907E-1,-2.7932695E-1,3.2175007E-1,-3.180059E-1,-8.427209E-2,6.256118E-2,9.009838E-2,2.556389E-1,-2.797656E-4,-3.888969E-1],"split_indices":[3,9,3,6,6,8,0,2,4,8,3,0,0,0,0,0,0,0,0,0,0],"split_type":[0,0,0,0,0,0,0,0,0,0,0,0,0,0,0,0,0,0,0,0,0],"sum_hessian":[5.213641E3,4.0793518E3,1.1342894E3,2.9532708E3,1.126081E3,1.0248705E1,1.1240406E3,1.0661627E2,2.8466543E3,1.0936666E3,3.2414467E1,2.0245926E0,8.2241125E0,1.0541301E2,1.2032614E0,1.6091633E3,1.2374911E3,7.7678174E2,3.168849E2,7.138009E0,2.5276459E1],"tree_param":{"num_deleted":"0","num_feature":"12","num_nodes":"21","size_leaf_vector":"1"}},{"base_weights":[-1.192376E-1,7.058453E-2,-1.0067741E0,3.585716E-1,-5.8234423E-2,-4.444869E-1,-3.0361113E-1,2.5156507E-1,1.2160412E0,-5.141627E-1,2.4313524E-1,-2.7109528E-1,2.3683242E-1,1.378148E-1,-6.702369E-2,3.7759668E-1,-3.9744407E-1,-1.565033E-2,-3.4506795E-1,1.5259798E-1,-6.4333454E-2],"categories":[],"categories_nodes":[],"categories_segments":[],"categories_sizes":[],"default_left":[0,0,0,0,0,0,0,0,0,0,0,0,0,0,0,0,0,0,0,0,0],"id":9,"left_children":[1,3,5,7,9,11,-1,13,15,17,19,-1,-1,-1,-1,-1,-1,-1,-1,-1,-1],"loss_changes":[8.087865E2,1.4675932E2,2.0531616E0,1.11874115E2,3.7575732E2,6.167568E0,0E0,1.0751951E2,1.6326492E1,3.1973065E2,2.001633E2,0E0,0E0,0E0,0E0,0E0,0E0,0E0,0E0,0E0,0E0],"parents":[2147483647,0,0,1,1,2,2,3,3,4,4,5,5,7,7,8,8,9,9,10,10],"right_children":[2,4,6,8,10,12,-1,14,16,18,20,-1,-1,-1,-1,-1,-1,-1,-1,-1,-1],"split_conditions":[2.461E1,2.042E1,2.468E1,3.5E1,3.8E1,3.31E2,-3.0361113E-1,1.93E1,2.115E1,2.191E1,2.422E1,-2.7109528E-1,2.3683242E-1,1.378148E-1,-6.702369E-2,3.7759668E-1,-3.9744407E-1,-1.565033E-2,-3.4506795E-1,1.5259798E-1,-6.4333454E-2],"split_indices":[3,6,3,4,4,0,0,6,3,6,6,0,0,0,0,0,0,0,0,0,0],"split_type":[0,0,0,0,0,0,0,0,0,0,0,0,0,0,0,0,0,0,0,0,0],"sum_hessian":[4.7992363E3,3.954407E3,8.4482947E2,1.2216062E3,2.7328008E3,8.626589E0,8.362029E2,1.0872216E3,1.3438463E2,1.0872477E3,1.645553E3,6.4821444E0,2.144444E0,7.563343E2,3.308873E2,1.3266426E2,1.7203645E0,6.3042816E2,4.5681955E2,1.0412339E3,6.043191E2],"tree_param":{"num_deleted":"0","num_feature":"12","num_nodes":"21","size_leaf_vector":"1"}},{"base_weights":[-1.0186819E-1,5.2298393E-2,-1.0099357E0,2.0321567E-1,-2.7458742E-1,-2.9842263E-1,-1.0246583E0,8.765443E-2,6.030133E-1,-1.8652847E-1,-1.4025639E0,7.550515E-1,-9.837296E-1,-3.867195E-1,-3.029577E-1,7.428987E-2,-1.15695946E-1,-2.979296E-1,2.0040874E-1,-9.254342E-2,1.2264416E-1,-4.7914943E-1,-1.4803E-1,-2.474888E-1,3.8423684E-1,-4.6777213E-1,3.426637E-2],"categories":[],"categories_nodes":[],"categories_segments":[],"categories_sizes":[],"default_left":[0,0,0,0,0,0,0,0,0,0,0,0,0,0,0,0,0,0,0,0,0,0,0,0,0,0,0],"id":10,"left_children":[1,3,5,7,9,11,13,15,17,19,21,23,25,-1,-1,-1,-1,-1,-1,-1,-1,-1,-1,-1,-1,-1,-1],"loss_changes":[6.062243E2,1.8271078E2,6.27771E0,1.1700337E2,1.15941574E2,1.0959677E1,1.1060791E0,1.4900967E2,5.960164E1,7.899518E1,1.41727295E1,6.1597643E0,5.870323E0,0E0,0E0,0E0,0E0,0E0,0E0,0E0,0E0,0E0,0E0,0E0,0E0,0E0,0E0],"parents":[2147483647,0,0,1,1,2,2,3,3,4,4,5,5,6,6,7,7,8,8,9,9,10,10,11,11,12,12],"right_children":[2,4,6,8,10,12,14,16,18,20,22,24,26,-1,-1,-1,-1,-1,-1,-1,-1,-1,-1,-1,-1,-1,-1],"split_conditions":[2.55E1,7.168E1,2.352E1,2.6E1,2.465E1,5.192E1,2.415E1,2.162E1,3.8E1,2.538E1,2.704E1,4.644E1,2.345E1,-3.867195E-1,-3.029577E-1,7.428987E-2,-1.15695946E-1,-2.979296E-1,2.0040874E-1,-9.254342E-2,1.2264416E-1,-4.7914943E-1,-1.4803E-1,-2.474888E-1,3.8423684E-1,-4.6777213E-1,3.426637E-2],"split_indices":[6,2,3,8,6,2,3,3,4,8,8,2,3,0,0,0,0,0,0,0,0,0,0,0,0,0,0],"split_type":[0,0,0,0,0,0,0,0,0,0,0,0,0,0,0,0,0,0,0,0,0,0,0,0,0,0,0],"sum_hessian":[4.3289917E3,3.7015122E3,6.274795E2,2.532624E3,1.1688884E3,1.3151764E1,6.1432776E2,1.9656681E3,5.669559E2,1.0853246E3,8.356383E1,5.143402E0,8.008362E0,2.799859E1,5.8632916E2,1.4694644E3,4.962037E2,2.1631708E1,5.4532416E2,9.012042E2,1.8412032E2,6.820718E1,1.5356654E1,1.1420418E0,4.0013604E0,4.9786015E0,3.0297604E0],"tree_param":{"num_deleted":"0","num_feature":"12","num_nodes":"27","size_leaf_vector":"1"}},{"base_weights":[-8.186194E-2,3.811262E-2,-3.0158067E-1,-2.8306592E-1,1.4669631E-1,-2.1833092E-1,-1.4255038E0,2.8770697E-1,-1.8640043E-1,2.533053E-1,-8.188877E-2,-5.9675235E-1,-3.3626443E-1,1.7260087E-1,3.520577E-2,-1.4735993E-2,-1.7997546E-1],"categories":[],"categories_nodes":[],"categories_segments":[],"categories_sizes":[],"default_left":[0,0,0,0,0,0,0,0,0,0,0,0,0,0,0,0,0],"id":11,"left_children":[1,3,-1,5,7,9,11,13,15,-1,-1,-1,-1,-1,-1,-1,-1],"loss_changes":[4.5141913E2,1.2582918E2,0E0,6.7110146E1,1.26694405E2,5.0387356E1,6.1335907E0,9.276956E1,4.5527813E1,0E0,0E0,0E0,0E0,0E0,0E0,0E0,0E0],"parents":[2147483647,0,0,1,1,3,3,4,4,5,5,6,6,7,7,8,8],"right_children":[2,4,-1,6,8,10,12,14,16,-1,-1,-1,-1,-1,-1,-1,-1],"split_conditions":[2.468E1,1.604E1,-3.0158067E-1,2.444E1,2.33E2,1.802E1,2.368E1,2.247E1,7.192E1,2.533053E-1,-8.188877E-2,-5.9675235E-1,-3.3626443E-1,1.7260087E-1,3.520577E-2,-1.4735993E-2,-1.7997546E-1],"split_indices":[3,1,0,6,0,6,3,8,2,0,0,0,0,0,0,0,0],"split_type":[0,0,0,0,0,0,0,0,0,0,0,0,0,0,0,0,0],"sum_hessian":[4.0733735E3,3.6058398E3,4.675337E2,9.1064526E2,2.6951946E3,8.6293884E2,4.7706387E1,1.8936764E3,8.015183E2,4.1487057E1,8.214518E2,1.4796711E1,3.2909676E1,7.0349915E2,1.1901772E3,6.0258856E2,1.9892978E2],"tree_param":{"num_deleted":"0","num_feature":"12","num_nodes":"17","size_leaf_vector":"1"}},{"base_weights":[-6.408054E-2,3.117135E-2,-9.948514E-1,-4.4481896E-2,3.8400626E-1,-2.7540535E-1,-3.0574936E-1,1.5130488E-2,-1.3178924E0,4.4754288E-1,-1.6684664E0,2.750938E-1,-3.6303234E-1,2.1608321E-1,-7.31339E-3,-5.218203E-1,-2.687294E-1,2.0004778E-1,-4.816866E-3,-4.006151E-2,-5.315783E-1,1.9477193E-1,-2.8276482E-1],"categories":[],"categories_nodes":[],"categories_segments":[],"categories_sizes":[],"default_left":[0,0,0,0,0,0,0,0,0,0,0,0,0,0,0,0,0,0,0,0,0,0,0],"id":12,"left_children":[1,3,5,7,9,11,-1,13,15,17,19,21,-1,-1,-1,-1,-1,-1,-1,-1,-1,-1,-1],"loss_changes":[3.458779E2,9.450394E1,6.0545044E0,2.2135156E2,8.226117E1,7.1299424E0,0E0,7.7641045E1,2.164392E1,6.1727737E1,2.7775764E0,4.770519E0,0E0,0E0,0E0,0E0,0E0,0E0,0E0,0E0,0E0,0E0,0E0],"parents":[2147483647,0,0,1,1,2,2,3,3,4,4,5,5,7,7,8,8,9,9,10,10,11,11],"right_children":[2,4,6,8,10,12,-1,14,16,18,20,22,-1,-1,-1,-1,-1,-1,-1,-1,-1,-1,-1],"split_conditions":[2.55E1,2.6E1,2.352E1,2.429E1,8.043E1,5.674E1,-3.0574936E-1,1.749E1,2.385E1,2.481E1,2.39E1,3.007E1,-3.6303234E-1,2.1608321E-1,-7.31339E-3,-5.218203E-1,-2.687294E-1,2.0004778E-1,-4.816866E-3,-4.006151E-2,-5.315783E-1,1.9477193E-1,-2.8276482E-1],"split_indices":[6,8,3,6,2,2,0,3,3,6,6,9,0,0,0,0,0,0,0,0,0,0,0],"split_type":[0,0,0,0,0,0,0,0,0,0,0,0,0,0,0,0,0,0,0,0,0,0,0],"sum_hessian":[3.8999246E3,3.5387478E3,3.6117676E2,2.9146714E3,6.2407654E2,1.2209623E1,3.4896713E2,2.785272E3,1.2939929E2,6.0609607E2,1.798044E1,8.128172E0,4.081452E0,1.4686125E2,2.6384106E3,6.318573E1,6.621356E1,4.1117252E2,1.9492357E2,1.2800846E0,1.6700356E1,6.5747504E0,1.5534214E0],"tree_param":{"num_deleted":"0","num_feature":"12","num_nodes":"23","size_leaf_vector":"1"}},{"base_weights":[-5.026943E-2,2.2240266E-2,-3.0016273E-1,-4.3714276E-1,7.513716E-2,8.5151404E-2,-7.7557695E-1,1.5624475E-1,-2.3853624E-1,-1.683254E-1,2.5765654E-1,-3.7097806E-1,-1.5058386E-1,1.2889566E-1,1.7203594E-2,-4.9649913E-2,-4.9303207E-1],"categories":[],"categories_nodes":[],"categories_segments":[],"categories_sizes":[],"default_left":[0,0,0,0,0,0,0,0,0,0,0,0,0,0,0,0,0],"id":13,"left_children":[1,3,-1,5,7,9,11,13,15,-1,-1,-1,-1,-1,-1,-1,-1],"loss_changes":[2.569619E2,8.42459E1,0E0,6.3345787E1,7.912341E1,7.131241E1,2.6795242E1,6.677791E1,6.53006E1,0E0,0E0,0E0,0E0,0E0,0E0,0E0,0E0],"parents":[2147483647,0,0,1,1,3,3,4,4,5,5,6,6,7,7,8,8],"right_children":[2,4,-1,6,8,10,12,14,16,-1,-1,-1,-1,-1,-1,-1,-1],"split_conditions":[2.468E1,1.267E1,-3.0016273E-1,1.909E1,2.51E2,1.909E1,9.41E0,2.042E1,2.465E1,-1.683254E-1,2.5765654E-1,-3.7097806E-1,-1.5058386E-1,1.2889566E-1,1.7203594E-2,-4.9649913E-2,-4.9303207E-1],"split_indices":[3,1,0,6,0,7,1,6,6,0,0,0,0,0,0,0,0],"split_type":[0,0,0,0,0,0,0,0,0,0,0,0,0,0,0,0,0],"sum_hessian":[3.7279514E3,3.4645674E3,2.63384E2,3.5699353E2,3.1075737E3,1.4066238E2,2.1633113E2,2.469523E3,6.3805096E2,7.679455E1,6.3867836E1,7.926509E1,1.3706604E2,6.551146E2,1.8144082E3,6.0758246E2,3.0468504E1],"tree_param":{"num_deleted":"0","num_feature":"12","num_nodes":"17","size_leaf_vector":"1"}},{"base_weights":[-4.020258E-2,1.8176155E-2,-9.7673154E-1,-1.3789178E-1,2.3060305E-1,-2.6115033E-1,-3.0461898E-1,7.125214E-2,-9.934748E-1,8.953233E-1,9.09161E-2,-1.0500516E0,2.7235982E-1,-3.9207913E-2,1.4875558E-1,-7.541792E-2,-3.2659972E-1,2.8678462E-1,-2.9512534E-1,-5.6580216E-1,5.7757955E-2,-1.5141885E-2,-3.9738503E-1,-2.5229722E-1,2.1029E-1],"categories":[],"categories_nodes":[],"categories_segments":[],"categories_sizes":[],"default_left":[0,0,0,0,0,0,0,0,0,0,0,0,0,0,0,0,0,0,0,0,0,0,0,0,0],"id":14,"left_children":[1,3,5,7,9,11,-1,13,15,17,19,21,23,-1,-1,-1,-1,-1,-1,-1,-1,-1,-1,-1,-1],"loss_changes":[1.9707782E2,1.125467E2,5.5869293E0,3.5026685E2,1.3341727E2,5.4161553E0,0E0,1.3499173E2,2.6886566E1,2.9369553E1,2.3924312E2,1.3392663E0,4.4382844E0,0E0,0E0,0E0,0E0,0E0,0E0,0E0,0E0,0E0,0E0,0E0,0E0],"parents":[2147483647,0,0,1,1,2,2,3,3,4,4,5,5,7,7,8,8,9,9,10,10,11,11,12,12],"right_children":[2,4,6,8,10,12,-1,14,16,18,20,22,24,-1,-1,-1,-1,-1,-1,-1,-1,-1,-1,-1,-1],"split_conditions":[2.55E1,3.8E1,2.352E1,2.169E1,2.299E1,2.328E1,-3.0461898E-1,3.5E1,2.102E1,2.36E1,2.375E1,5.123E1,2.767E1,-3.9207913E-2,1.4875558E-1,-7.541792E-2,-3.2659972E-1,2.8678462E-1,-2.9512534E-1,-5.6580216E-1,5.7757955E-2,-1.5141885E-2,-3.9738503E-1,-2.5229722E-1,2.1029E-1],"split_indices":[6,4,3,6,6,3,0,4,3,3,7,2,1,0,0,0,0,0,0,0,0,0,0,0,0],"split_type":[0,0,0,0,0,0,0,0,0,0,0,0,0,0,0,0,0,0,0,0,0,0,0,0,0],"sum_hessian":[3.6033154E3,3.3928047E3,2.1051064E2,1.9560587E3,1.4367461E3,1.118894E1,1.9932169E2,1.5725675E3,3.8349124E2,2.4855453E2,1.1881915E3,4.1234307E0,7.0655093E0,1.0661737E3,5.0639383E2,4.40137E1,3.3947754E2,2.4126187E2,7.2926693E0,5.722699E1,1.1309645E3,1.1436609E0,2.9797697E0,1.6965071E0,5.369002E0],"tree_param":{"num_deleted":"0","num_feature":"12","num_nodes":"25","size_leaf_vector":"1"}},{"base_weights":[-3.334437E-2,1.0677335E-2,-2.9876027E-1,4.0492848E-2,-6.950327E-1,-8.7073125E-2,2.2095048E-1,-4.5866436E-1,-1.6333144E0,1.6507827E-2,-3.208676E-1,2.613613E-1,3.3520874E-2,-9.609593E-2,-6.6429234E-1,-6.0726196E-1,-3.7600535E-1],"categories":[],"categories_nodes":[],"categories_segments":[],"categories_sizes":[],"default_left":[0,0,0,0,0,0,0,0,0,0,0,0,0,0,0,0,0],"id":15,"left_children":[1,3,-1,5,7,9,11,13,15,-1,-1,-1,-1,-1,-1,-1,-1],"loss_changes":[1.4441365E2,6.862065E1,0E0,7.204336E1,2.8570316E1,2.5606293E2,9.194243E1,2.5276632E1,1.3560257E0,0E0,0E0,0E0,0E0,0E0,0E0,0E0,0E0],"parents":[2147483647,0,0,1,1,3,3,4,4,5,5,6,6,7,7,8,8],"right_children":[2,4,-1,6,8,10,12,14,16,-1,-1,-1,-1,-1,-1,-1,-1],"split_conditions":[2.468E1,8.405E1,-2.9876027E-1,3.8E1,2.422E1,2.191E1,2.299E1,9.177E1,2.376E1,1.6507827E-2,-3.208676E-1,2.613613E-1,3.3520874E-2,-9.609593E-2,-6.6429234E-1,-6.0726196E-1,-3.7600535E-1],"split_indices":[3,2,0,4,6,6,6,2,3,0,0,0,0,0,0,0,0],"split_type":[0,0,0,0,0,0,0,0,0,0,0,0,0,0,0,0,0],"sum_hessian":[3.4069895E3,3.2589287E3,1.480606E2,3.1277283E3,1.3120062E2,1.832703E3,1.2950251E3,1.0598909E2,2.5211535E1,1.6019528E3,2.3075024E2,1.8522595E2,1.1097992E3,9.934329E1,6.645796E0,1.0294037E1,1.4917497E1],"tree_param":{"num_deleted":"0","num_feature":"12","num_nodes":"17","size_leaf_vector":"1"}},{"base_weights":[-2.8422236E-2,9.087083E-3,-9.5233047E-1,4.0211633E-2,-6.4718395E-1,-2.6888967E-1,-3.0350527E-1,1.23219E-1,-1.724508E-1,-3.7691283E-1,-1.7861202E0,4.34188E-1,-7.253393E-1,-3.0719163E-2,9.329422E-2,-2.4034355E-2,-3.862309E-1,-2.1157357E-1,2.0970504E-1,2.1748292E-1,-5.77093E-1,-9.255939E-2,2.3517844E-1,-2.908344E-2,-3.491292E-1],"categories":[],"categories_nodes":[],"categories_segments":[],"categories_sizes":[],"default_left":[0,0,0,0,0,0,0,0,0,0,0,0,0,0,0,0,0,0,0,0,0,0,0,0,0],"id":16,"left_children":[1,3,5,7,9,11,-1,13,15,17,19,21,23,-1,-1,-1,-1,-1,-1,-1,-1,-1,-1,-1,-1],"loss_changes":[1.1309001E2,6.409727E1,4.892517E0,5.2901966E1,4.3064007E1,4.0168347E0,0E0,9.13314E1,8.6524475E1,4.1507843E1,1.0712608E1,1.5838923E0,1.9173279E0,0E0,0E0,0E0,0E0,0E0,0E0,0E0,0E0,0E0,0E0,0E0,0E0],"parents":[2147483647,0,0,1,1,2,2,3,3,4,4,5,5,7,7,8,8,9,9,10,10,11,11,12,12],"right_children":[2,4,6,8,10,12,-1,14,16,18,20,22,24,-1,-1,-1,-1,-1,-1,-1,-1,-1,-1,-1,-1],"split_conditions":[2.55E1,3.21E2,2.352E1,7.301E1,1.82E1,5.192E1,-3.0350527E-1,3.5E1,2.452E1,1.721E1,1.953E1,2.328E1,2.558E1,-3.0719163E-2,9.329422E-2,-2.4034355E-2,-3.862309E-1,-2.1157357E-1,2.0970504E-1,2.1748292E-1,-5.77093E-1,-9.255939E-2,2.3517844E-1,-2.908344E-2,-3.491292E-1],"split_indices":[6,0,3,2,11,2,0,4,6,9,3,3,6,0,0,0,0,0,0,0,0,0,0,0,0],"split_type":[0,0,0,0,0,0,0,0,0,0,0,0,0,0,0,0,0,0,0,0,0,0,0,0,0],"sum_hessian":[3.2620444E3,3.1357285E3,1.2631582E2,2.9946423E3,1.4108627E2,1.0535295E1,1.1578052E2,2.1542185E3,8.4042377E2,1.1510309E2,2.5983183E1,4.1664333E0,6.3688617E0,9.786811E2,1.1755375E3,7.771378E2,6.3285957E1,8.845465E1,2.6648434E1,1.1273432E0,2.4855839E1,1.3715636E0,2.7948697E0,3.1192122E0,3.2496493E0],"tree_param":{"num_deleted":"0","num_feature":"12","num_nodes":"25","size_leaf_vector":"1"}},{"base_weights":[-2.2429343E-2,1.0045734E-2,-8.280365E-1,8.7156177E-1,-1.332508E-2,-1.0543292E0,-4.7433075E-2,9.49708E-1,-7.9722595E-1,-1.1105555E0,6.8686423E-3,-1.5398295E0,-9.763963E-1,4.9923956E-1,-3.807617E-1,4.603255E-2,3.0071047E-1,1.9625694E-1,-4.4337705E-1,-1.9323601E-1,-5.425786E-1,8.67559E-2,-1.549593E-2,-5.3796226E-1,-1.1994457E-1,-1.3799544E-1,-3.0217302E-1,2.1076845E-1,-3.089996E-1],"categories":[],"categories_nodes":[],"categories_segments":[],"categories_sizes":[],"default_left":[0,0,0,0,0,0,0,0,0,0,0,0,0,0,0,0,0,0,0,0,0,0,0,0,0,0,0,0,0],"id":17,"left_children":[1,3,5,7,9,11,13,15,17,19,21,23,25,27,-1,-1,-1,-1,-1,-1,-1,-1,-1,-1,-1,-1,-1,-1,-1],"loss_changes":[8.348961E1,6.178898E1,2.1793488E1,1.1326965E1,6.621788E1,2.1219711E0,1.9895018E1,3.1119003E0,5.0860376E0,1.6419563E1,4.8509506E1,2.6108246E0,8.954849E-1,7.1415954E0,0E0,0E0,0E0,0E0,0E0,0E0,0E0,0E0,0E0,0E0,0E0,0E0,0E0,0E0,0E0],"parents":[2147483647,0,0,1,1,2,2,3,3,4,4,5,5,6,6,7,7,8,8,9,9,10,10,11,11,12,12,13,13],"right_children":[2,4,6,8,10,12,14,16,18,20,22,24,26,28,-1,-1,-1,-1,-1,-1,-1,-1,-1,-1,-1,-1,-1,-1,-1],"split_conditions":[2.537E1,1.802E1,2.912E1,1.861E1,1.909E1,2.55E1,3.007E1,7.27E0,4.35E0,1.834E1,1.93E1,2.584E1,2.558E1,2.02E2,-3.807617E-1,4.603255E-2,3.0071047E-1,1.9625694E-1,-4.4337705E-1,-1.9323601E-1,-5.425786E-1,8.67559E-2,-1.549593E-2,-5.3796226E-1,-1.1994457E-1,-1.3799544E-1,-3.0217302E-1,2.1076845E-1,-3.089996E-1],"split_indices":[6,6,9,3,8,6,9,10,10,6,6,1,6,0,0,0,0,0,0,0,0,0,0,0,0,0,0,0,0],"split_type":[0,0,0,0,0,0,0,0,0,0,0,0,0,0,0,0,0,0,0,0,0,0,0,0,0,0,0,0,0],"sum_hessian":[3.1899177E3,3.06726E3,1.2265774E2,8.005111E1,2.987209E3,9.4819435E1,2.7838299E1,7.688178E1,3.1693316E0,5.3008076E1,2.934201E3,1.0520594E1,8.429884E1,1.9641323E1,8.196976E0,5.0118775E0,7.18699E1,1.024272E0,2.1450596E0,3.292805E1,2.0080025E1,5.031222E2,2.4310786E3,8.138722E0,2.3818705E0,5.6485286E0,7.8650314E1,1.7813488E1,1.8278351E0],"tree_param":{"num_deleted":"0","num_feature":"12","num_nodes":"29","size_leaf_vector":"1"}},{"base_weights":[-1.702045E-2,4.205991E-3,-2.9600337E-1,6.0889408E-2,-2.8289738E-1,-3.7411362E-1,1.08879134E-1,-2.366062E-1,-4.5241144E-1,7.858599E-2,-1.805764E-1,2.4575728E-1,2.29197E-2,-1.07239865E-1,1.01382434E-1],"categories":[],"categories_nodes":[],"categories_segments":[],"categories_sizes":[],"default_left":[0,0,0,0,0,0,0,0,0,0,0,0,0,0,0],"id":18,"left_children":[1,3,-1,5,7,9,11,13,-1,-1,-1,-1,-1,-1,-1],"loss_changes":[6.451513E1,4.994808E1,0E0,5.3546898E1,2.8342915E1,3.7091675E1,5.3212914E1,3.4063793E1,0E0,0E0,0E0,0E0,0E0,0E0,0E0],"parents":[2147483647,0,0,1,1,3,3,4,4,5,5,6,6,7,7],"right_children":[2,4,-1,6,8,10,12,14,-1,-1,-1,-1,-1,-1,-1],"split_conditions":[2.468E1,2.65E2,-2.9600337E-1,4.8E1,2.465E1,1.909E1,1.834E1,2.524E1,-4.5241144E-1,7.858599E-2,-1.805764E-1,2.4575728E-1,2.29197E-2,-1.07239865E-1,1.01382434E-1],"split_indices":[3,0,0,0,6,6,6,8,0,0,0,0,0,0,0],"split_type":[0,0,0,0,0,0,0,0,0,0,0,0,0,0,0],"sum_hessian":[3.1332822E3,3.0671365E3,6.614598E1,2.5620862E3,5.050501E2,2.5389139E2,2.3081948E3,4.8781158E2,1.7238533E1,6.6912796E1,1.8697859E2,9.9871544E1,2.2083232E3,4.0334338E2,8.446819E1],"tree_param":{"num_deleted":"0","num_feature":"12","num_nodes":"15","size_leaf_vector":"1"}},{"base_weights":[-1.27422055E-2,4.5716736E-2,-2.9363838E-1,-5.8601715E-2,4.6973693E-1,2.659554E-1,-6.0698515E-1,1.4507286E-2,-4.8035896E-1,-3.027563E-1,5.474836E-1,-2.8417727E-1,3.703878E-1,-1.3330837E0,-4.3121842E-1,-1.3032188E-2,2.598544E-1,-3.3891815E-1,5.70489E-2,1.8259412E-1,-2.4940643E-1,1.3575016E-1,-1.9513233E-1,-3.016322E-1,-5.475999E-1,-5.8015864E-2,-3.5013664E-1],"categories":[],"categories_nodes":[],"categories_segments":[],"categories_sizes":[],"default_left":[0,0,0,0,0,0,0,0,0,0,0,0,0,0,0,0,0,0,0,0,0,0,0,0,0,0,0],"id":19,"left_children":[1,3,5,7,9,11,13,15,17,-1,19,-1,21,23,25,-1,-1,-1,-1,-1,-1,-1,-1,-1,-1,-1,-1],"loss_changes":[5.0584328E1,1.1282269E2,9.320982E1,6.3137432E1,5.8457382E1,2.4572643E1,4.287818E1,8.620305E1,1.3192969E2,0E0,4.0910507E1,0E0,1.5109467E1,8.789719E0,4.801003E1,0E0,0E0,0E0,0E0,0E0,0E0,0E0,0E0,0E0,0E0,0E0,0E0],"parents":[2147483647,0,0,1,1,2,2,3,3,4,4,5,5,6,6,7,7,8,8,10,10,12,12,13,13,14,14],"right_children":[2,4,6,8,10,12,14,16,18,-1,20,-1,22,24,26,-1,-1,-1,-1,-1,-1,-1,-1,-1,-1,-1,-1],"split_conditions":[2.422E1,2.473E1,6.188E1,2.281E1,3.8E1,3.8E1,2.503E1,3.8E1,2.361E1,-3.027563E-1,8.463E1,-2.8417727E-1,2.558E1,2.297E1,2.515E1,-1.3032188E-2,2.598544E-1,-3.3891815E-1,5.70489E-2,1.8259412E-1,-2.4940643E-1,1.3575016E-1,-1.9513233E-1,-3.016322E-1,-5.475999E-1,-5.8015864E-2,-3.5013664E-1],"split_indices":[6,8,2,6,4,4,7,4,6,0,2,0,6,10,6,0,0,0,0,0,0,0,0,0,0,0,0],"split_type":[0,0,0,0,0,0,0,0,0,0,0,0,0,0,0,0,0,0,0,0,0,0,0,0,0,0,0],"sum_hessian":[3.0786685E3,2.5490154E3,5.2965326E2,2.0464136E3,5.026017E2,1.9017621E2,3.3947702E2,1.7449099E3,3.0150372E2,2.4503681E1,4.7809805E2,1.4433122E1,1.7574309E2,6.487825E1,2.745988E2,1.6346381E3,1.10271805E2,1.5282002E2,1.4868369E2,4.583259E2,1.9772146E1,1.631745E2,1.2568585E1,4.0778473E1,2.4099777E1,2.0848317E2,6.611561E1],"tree_param":{"num_deleted":"0","num_feature":"12","num_nodes":"27","size_leaf_vector":"1"}},{"base_weights":[-8.989515E-3,7.889584E-1,-2.5334584E-2,8.646031E-1,-7.359916E-1,-2.067996E-1,6.913118E-2,9.1433376E-1,-2.7780327E-1,1.43284E-1,-4.351615E-1,3.890512E-2,-1.0145888E0,9.682192E-1,2.4062654E-2,2.831527E-1,7.2817034E-3,-3.6441135E-1,2.2069266E-1,-2.7132782E-1,3.1727195E-2,-3.2566422E-1,1.4253365E-1,3.128485E-1,-2.59561E-1,-3.4901333E-1,2.7201194E-2],"categories":[],"categories_nodes":[],"categories_segments":[],"categories_sizes":[],"default_left":[0,0,0,0,0,0,0,0,0,0,0,0,0,0,0,0,0,0,0,0,0,0,0,0,0,0,0],"id":20,"left_children":[1,3,5,7,9,11,13,15,17,-1,-1,19,21,23,25,-1,-1,-1,-1,-1,-1,-1,-1,-1,-1,-1,-1],"loss_changes":[3.888247E1,7.539303E0,5.0083942E1,3.5191994E0,3.613709E0,1.9855835E2,7.784217E1,1.4297333E0,3.8982663E0,0E0,0E0,4.8521927E1,2.517862E1,1.3446152E1,1.4491899E2,0E0,0E0,0E0,0E0,0E0,0E0,0E0,0E0,0E0,0E0,0E0,0E0],"parents":[2147483647,0,0,1,1,2,2,3,3,4,4,5,5,6,6,7,7,8,8,11,11,12,12,13,13,14,14],"right_children":[2,4,6,8,10,12,14,16,18,-1,-1,20,22,24,26,-1,-1,-1,-1,-1,-1,-1,-1,-1,-1,-1,-1],"split_conditions":[1.802E1,1.861E1,3.5E1,7.997E1,1.834E1,1.99E1,2.042E1,3.42E2,1.048E1,1.43284E-1,-4.351615E-1,1.909E1,3.347E1,2.088E1,2.114E1,2.831527E-1,7.2817034E-3,-3.6441135E-1,2.2069266E-1,-2.7132782E-1,3.1727195E-2,-3.2566422E-1,1.4253365E-1,3.128485E-1,-2.59561E-1,-3.4901333E-1,2.7201194E-2],"split_indices":[6,3,4,2,8,6,6,0,1,0,0,8,9,3,6,0,0,0,0,0,0,0,0,0,0,0,0],"split_type":[0,0,0,0,0,0,0,0,0,0,0,0,0,0,0,0,0,0,0,0,0,0,0,0,0,0,0],"sum_hessian":[2.9786772E3,5.8841316E1,2.919836E3,5.6473015E1,2.3682995E0,9.992078E2,1.920628E3,5.4308525E1,2.1644902E0,1.0005406E0,1.367759E0,7.6689404E2,2.3231381E2,9.070183E1,1.8299261E3,5.250731E1,1.8012154E0,1.021528E0,1.1429622E0,4.9922592E1,7.1697144E2,2.2201016E2,1.0303647E1,8.7569496E1,3.132331E0,9.6320786E1,1.7336053E3],"tree_param":{"num_deleted":"0","num_feature":"12","num_nodes":"27","size_leaf_vector":"1"}},{"base_weights":[-8.0641275E-3,-4.4476975E-2,3.563839E-1,-1.3914677E-2,-5.6738836E-1,3.0220622E-1,2.9531732E-1,-6.50285E-2,2.2685885E-1,-1.1014344E0,-1.2966797E-1,-9.2983633E-1,3.3488947E-1,-1.022667E-2,-2.4273457E-1,9.455611E-2,-2.04675E-1,1.2725984E-1,-3.6684301E-1,1.20866336E-1,-2.0328E-1,-5.693908E-1,4.2309754E-2,-1.8400565E-1,1.1717872E-1],"categories":[],"categories_nodes":[],"categories_segments":[],"categories_sizes":[],"default_left":[0,0,0,0,0,0,0,0,0,0,0,0,0,0,0,0,0,0,0,0,0,0,0,0,0],"id":21,"left_children":[1,3,5,7,9,-1,11,13,15,17,19,21,23,-1,-1,-1,-1,-1,-1,-1,-1,-1,-1,-1,-1],"loss_changes":[3.8346634E1,4.1973846E1,1.0136883E1,3.0571276E1,3.3759975E1,0E0,1.2014294E1,4.7141056E1,3.5146553E1,1.2590988E1,2.3861536E1,8.372484E0,1.2630226E1,0E0,0E0,0E0,0E0,0E0,0E0,0E0,0E0,0E0,0E0,0E0,0E0],"parents":[2147483647,0,0,1,1,2,2,3,3,4,4,6,6,7,7,8,8,9,9,10,10,11,11,12,12],"right_children":[2,4,6,8,10,-1,12,14,16,18,20,22,24,-1,-1,-1,-1,-1,-1,-1,-1,-1,-1,-1,-1],"split_conditions":[2.955E1,2.495E1,1.887E1,2.545E1,2.397E1,3.0220622E-1,1.83E2,2.413E1,7.984E1,5.06E1,1.95E2,3.009E1,1.982E1,-1.022667E-2,-2.4273457E-1,9.455611E-2,-2.04675E-1,1.2725984E-1,-3.6684301E-1,1.20866336E-1,-2.0328E-1,-5.693908E-1,4.2309754E-2,-1.8400565E-1,1.1717872E-1],"split_indices":[9,6,6,8,1,0,0,6,2,2,0,1,2,0,0,0,0,0,0,0,0,0,0,0,0],"split_type":[0,0,0,0,0,0,0,0,0,0,0,0,0,0,0,0,0,0,0,0,0,0,0,0,0],"sum_hessian":[2.8874004E3,2.6259167E3,2.614835E2,2.4818862E3,1.4403075E2,2.1096684E1,2.4038681E2,2.0478729E3,4.3401315E2,6.419391E1,7.983684E1,6.8175673E0,2.3356923E2,1.9671245E3,8.07485E1,3.9617453E2,3.7838646E1,4.5468807E0,5.9647026E1,4.062073E1,3.9216106E1,3.174897E0,3.6426702E0,1.24046545E1,2.2116458E2],"tree_param":{"num_deleted":"0","num_feature":"12","num_nodes":"25","size_leaf_vector":"1"}},{"base_weights":[-6.193054E-3,5.5159032E-2,-1.8324068E-1,-8.099427E-2,1.7986912E-1,-1.2078452E-1,-6.353776E-1,-2.5307309E-2,-1.2845764E0,8.788492E-1,1.483467E-1,-2.508083E-1,2.9834428E-1,-1.0618834E0,8.293445E-1,5.1671034E-4,-3.013896E-1,-4.8928764E-1,-1.9059461E-1,-1.15237825E-1,2.8718314E-1,2.3920526E-1,3.6070872E-2,-4.7034375E-2,-4.3958578E-1,6.1915605E-3,2.6210207E-1,2.0991708E-1,-3.7331125E-1,3.0993783E-1,-2.9151157E-1],"categories":[],"categories_nodes":[],"categories_segments":[],"categories_sizes":[],"default_left":[0,0,0,0,0,0,0,0,0,0,0,0,0,0,0,0,0,0,0,0,0,0,0,0,0,0,0,0,0,0,0],"id":22,"left_children":[1,3,5,7,9,11,13,15,17,19,21,23,25,27,29,-1,-1,-1,-1,-1,-1,-1,-1,-1,-1,-1,-1,-1,-1,-1,-1],"loss_changes":[3.0894417E1,3.5881203E1,2.0592505E1,6.769655E1,2.4168285E1,3.5189507E1,5.6231216E1,2.559519E1,9.009071E0,5.0612946E0,1.9177244E1,5.5990784E1,2.4430214E1,2.3071152E1,8.543506E0,0E0,0E0,0E0,0E0,0E0,0E0,0E0,0E0,0E0,0E0,0E0,0E0,0E0,0E0,0E0,0E0],"parents":[2147483647,0,0,1,1,2,2,3,3,4,4,5,5,6,6,7,7,8,8,9,9,10,10,11,11,12,12,13,13,14,14],"right_children":[2,4,6,8,10,12,14,16,18,20,22,24,26,28,30,-1,-1,-1,-1,-1,-1,-1,-1,-1,-1,-1,-1,-1,-1,-1,-1],"split_conditions":[2.34E2,1.879E1,2.429E1,2.465E1,1.863E1,2.361E1,2.856E1,1.887E1,7.577E1,1.25E2,1.786E1,2.315E1,2.62E1,4.871E1,2.515E1,5.1671034E-4,-3.013896E-1,-4.8928764E-1,-1.9059461E-1,-1.15237825E-1,2.8718314E-1,2.3920526E-1,3.6070872E-2,-4.7034375E-2,-4.3958578E-1,6.1915605E-3,2.6210207E-1,2.0991708E-1,-3.7331125E-1,3.0993783E-1,-2.9151157E-1],"split_indices":[0,1,6,6,6,6,1,9,2,0,9,6,11,2,6,0,0,0,0,0,0,0,0,0,0,0,0,0,0,0,0],"split_type":[0,0,0,0,0,0,0,0,0,0,0,0,0,0,0,0,0,0,0,0,0,0,0,0,0,0,0,0,0,0,0],"sum_hessian":[2.8422725E3,2.111326E3,7.3094653E2,1.00952203E3,1.1018038E3,6.433449E2,8.760164E1,9.6585516E2,4.366686E1,4.6384754E1,1.0554191E3,4.9132556E2,1.5201935E2,6.805891E1,1.9542738E1,9.408847E2,2.4970478E1,2.7489254E1,1.6177605E1,2.484083E0,4.390067E1,4.267977E1,1.01273926E3,4.5706766E2,3.425791E1,1.03228065E2,4.879129E1,6.1224675E0,6.1936436E1,1.7939348E1,1.6033905E0],"tree_param":{"num_deleted":"0","num_feature":"12","num_nodes":"31","size_leaf_vector":"1"}},{"base_weights":[-4.2672446E-3,5.2270065E-3,-2.895598E-1,-1.2807101E-1,7.618476E-2,4.7121342E-2,-3.1796217E-1,4.2948404E-1,-2.6477933E-2,9.431432E-3,8.936313E-1,1.394268E-3,2.7105057E-1,-1.9564027E-1,3.062719E-2],"categories":[],"categories_nodes":[],"categories_segments":[],"categories_sizes":[],"default_left":[0,0,0,0,0,0,0,0,0,0,0,0,0,0,0],"id":23,"left_children":[1,3,-1,5,7,9,-1,11,13,-1,-1,-1,-1,-1,-1],"loss_changes":[2.5642159E1,2.6338163E1,0E0,1.5796852E2,6.592204E1,3.7389015E1,0E0,8.240248E1,1.1340454E2,0E0,0E0,0E0,0E0,0E0,0E0],"parents":[2147483647,0,0,1,1,3,3,4,4,5,5,7,7,8,8],"right_children":[2,4,-1,6,8,10,-1,12,14,-1,-1,-1,-1,-1,-1],"split_conditions":[2.468E1,3.5E1,-2.895598E-1,2.009E1,2.159E1,2.238E1,-3.1796217E-1,2.126E1,3.8E1,9.431432E-3,8.936313E-1,1.394268E-3,2.7105057E-1,-1.9564027E-1,3.062719E-2],"split_indices":[3,4,0,6,6,8,0,6,4,0,0,0,0,0,0],"split_type":[0,0,0,0,0,0,0,0,0,0,0,0,0,0,0],"sum_hessian":[2.809061E3,2.7825632E3,2.6497864E1,9.663733E2,1.8161898E3,8.142348E2,1.5213844E2,4.0820975E2,1.4079801E3,8.109075E2,3.3273306E0,2.158051E2,1.9240463E2,2.3931647E2,1.1686637E3],"tree_param":{"num_deleted":"0","num_feature":"12","num_nodes":"15","size_leaf_vector":"1"}},{"base_weights":[-6.119413E-3,7.0972794E-1,-1.8552395E-2,7.893425E-1,-6.567192E-1,-3.1098413E-1,1.2436704E-2,-7.168885E-2,8.72291E-1,1.135746E-1,-3.986639E-1,-2.1173131E-1,-4.565622E-1,5.906233E-2,-2.0194413E-1,1.3810046E-1,-2.2603287E-1,2.688155E-1,4.9201477E-2,-7.939407E-2,4.3098447E-1,3.522494E-3,1.5073606E-1,-3.581787E-2,-3.842089E-1],"categories":[],"categories_nodes":[],"categories_segments":[],"categories_sizes":[],"default_left":[0,0,0,0,0,0,0,0,0,0,0,0,0,0,0,0,0,0,0,0,0,0,0,0,0],"id":24,"left_children":[1,3,5,7,9,11,13,15,17,-1,-1,19,-1,21,23,-1,-1,-1,-1,-1,-1,-1,-1,-1,-1],"loss_changes":[2.425128E1,5.578987E0,2.4270885E1,3.2344036E0,2.665172E0,3.051934E1,2.4223475E1,2.0974426E0,5.36047E-1,0E0,0E0,2.1168972E1,0E0,4.1753433E1,3.8400047E1,0E0,0E0,0E0,0E0,0E0,0E0,0E0,0E0,0E0,0E0],"parents":[2147483647,0,0,1,1,2,2,3,3,4,4,5,5,6,6,7,7,8,8,11,11,13,13,14,14],"right_children":[2,4,6,8,10,12,14,16,18,-1,-1,20,-1,22,24,-1,-1,-1,-1,-1,-1,-1,-1,-1,-1],"split_conditions":[1.802E1,1.861E1,1.239E1,7.27E0,1.802E1,7.973E1,2.422E1,6.919E1,7.997E1,1.135746E-1,-3.986639E-1,7.939E1,-4.565622E-1,2.559E1,8.043E1,1.3810046E-1,-2.2603287E-1,2.688155E-1,4.9201477E-2,-7.939407E-2,4.3098447E-1,3.522494E-3,1.5073606E-1,-3.581787E-2,-3.842089E-1],"split_indices":[6,3,11,10,7,2,6,2,2,0,0,2,0,8,2,0,0,0,0,0,0,0,0,0,0],"split_type":[0,0,0,0,0,0,0,0,0,0,0,0,0,0,0,0,0,0,0,0,0,0,0,0,0],"sum_hessian":[2.7223474E3,4.551764E1,2.6768298E3,4.34107E1,2.1069376E0,2.5561911E2,2.4212107E3,3.8264728E0,3.958423E1,1.001357E0,1.1055808E0,2.3733997E2,1.827915E1,1.989286E3,4.319247E2,2.3316727E0,1.4948001E0,3.804292E1,1.5413079E0,2.3077115E2,6.56882E0,1.7983812E3,1.9090477E2,4.0225308E2,2.9671642E1],"tree_param":{"num_deleted":"0","num_feature":"12","num_nodes":"25","size_leaf_vector":"1"}},{"base_weights":[-4.279112E-3,3.5652705E-2,-2.0371318E-1,4.185472E-2,-4.5341E-1,-1.7254119E-1,-1.7665586E0,-3.722309E-1,6.314067E-2,-2.7986446E-1,2.2669296E-1,-6.4723486E-1,1.1270603E-1,-7.32051E-2,-4.065059E-1,1.7602305E-1,1.295239E-2,2.164347E-2,-1.3823865E-1,1.5558507E-1,-1.0827441E-1],"categories":[],"categories_nodes":[],"categories_segments":[],"categories_sizes":[],"default_left":[0,0,0,0,0,0,0,0,0,0,0,0,0,0,0,0,0,0,0,0,0],"id":25,"left_children":[1,3,5,7,-1,9,11,13,15,17,19,-1,-1,-1,-1,-1,-1,-1,-1,-1,-1],"loss_changes":[2.1401329E1,2.154679E1,2.1535395E1,1.968932E1,0E0,1.8943972E1,8.061171E0,1.343302E1,2.2168266E1,2.2180408E1,1.6296503E1,0E0,0E0,0E0,0E0,0E0,0E0,0E0,0E0,0E0,0E0],"parents":[2147483647,0,0,1,1,2,2,3,3,5,5,6,6,7,7,8,8,9,9,10,10],"right_children":[2,4,6,8,-1,10,12,14,16,18,20,-1,-1,-1,-1,-1,-1,-1,-1,-1,-1],"split_conditions":[2.65E2,9.177E1,2.758E1,2.8E1,-4.5341E-1,2.417E1,7.106E1,2.406E1,1.834E1,1.93E1,6.959E1,-6.4723486E-1,1.1270603E-1,-7.32051E-2,-4.065059E-1,1.7602305E-1,1.295239E-2,2.164347E-2,-1.3823865E-1,1.5558507E-1,-1.0827441E-1],"split_indices":[0,2,10,0,0,10,2,6,6,6,2,0,0,0,0,0,0,0,0,0,0],"split_type":[0,0,0,0,0,0,0,0,0,0,0,0,0,0,0,0,0,0,0,0,0],"sum_hessian":[2.685426E3,2.2381184E3,4.473075E2,2.2301506E3,7.9677515E0,4.3964883E2,7.658687E0,1.08229225E2,2.1219216E3,3.46737E2,9.2911835E1,6.4708657E0,1.1878216E0,9.68434E1,1.1385829E1,7.689843E1,2.0450231E3,1.1791988E2,2.2881711E2,6.2152058E1,3.0759775E1],"tree_param":{"num_deleted":"0","num_feature":"12","num_nodes":"21","size_leaf_vector":"1"}},{"base_weights":[-3.3282328E-3,-1.18901186E-1,5.6089006E-2,3.1725165E-2,-9.5133406E-1,8.7387574E-1,1.9393448E-2,-4.8375476E-2,4.2362863E-1,-3.1551355E-1,2.5292313E-1,1.0333773E0,1.01094045E-1,-7.810939E-1,7.017386E-2,3.9399702E-2,-2.3938026E-1,-1.11059666E-1,1.6931547E-1,5.1953065E-1,-2.8154865E-1,4.4190027E-3,3.222429E-1,1.1223098E-1,-4.8452607E-1,9.5727755E-4,-5.5605084E-1,2.1099663E-1,-2.6500805E-3],"categories":[],"categories_nodes":[],"categories_segments":[],"categories_sizes":[],"default_left":[0,0,0,0,0,0,0,0,0,0,0,0,0,0,0,0,0,0,0,0,0,0,0,0,0,0,0,0,0],"id":26,"left_children":[1,3,5,7,9,11,13,15,17,-1,19,21,23,25,27,-1,-1,-1,-1,-1,-1,-1,-1,-1,-1,-1,-1,-1,-1],"loss_changes":[1.8313742E1,1.1357125E2,5.2841442E1,2.41215E1,1.704174E1,9.21653E0,6.8621216E1,8.6092636E1,1.4778465E1,0E0,2.1858719E1,2.5826263E0,7.185297E0,8.470537E1,7.9397644E1,0E0,0E0,0E0,0E0,0E0,0E0,0E0,0E0,0E0,0E0,0E0,0E0,0E0,0E0],"parents":[2147483647,0,0,1,1,2,2,3,3,4,4,5,5,6,6,7,7,8,8,10,10,11,11,12,12,13,13,14,14],"right_children":[2,4,6,8,10,12,14,16,18,-1,20,22,24,26,28,-1,-1,-1,-1,-1,-1,-1,-1,-1,-1,-1,-1,-1,-1],"split_conditions":[3.5E1,1.99E1,2.042E1,2.126E1,3.349E1,2.044E1,2.114E1,1.93E1,1.93E1,-3.1551355E-1,2.009E1,4.6E1,8.136E1,2.075E1,2.148E1,3.9399702E-2,-2.3938026E-1,-1.11059666E-1,1.6931547E-1,5.1953065E-1,-2.8154865E-1,4.4190027E-3,3.222429E-1,1.1223098E-1,-4.8452607E-1,9.5727755E-4,-5.5605084E-1,2.1099663E-1,-2.6500805E-3],"split_indices":[4,6,6,8,1,3,6,6,6,0,6,0,2,6,6,0,0,0,0,0,0,0,0,0,0,0,0,0,0],"split_type":[0,0,0,0,0,0,0,0,0,0,0,0,0,0,0,0,0,0,0,0,0,0,0,0,0,0,0,0,0],"sum_hessian":[2.6649392E3,9.045298E2,1.7604094E3,7.667504E2,1.377794E2,7.462065E1,1.6857888E3,6.3735815E2,1.2939224E2,1.2729568E2,1.0483729E1,6.15745E1,1.304615E1,9.970392E1,1.5860848E3,5.1476685E2,1.2259133E2,1.924207E1,1.1015018E2,4.4752727E0,6.008457E0,2.4217346E0,5.9152767E1,1.1930299E1,1.115852E0,5.816392E1,4.1539997E1,1.7508563E2,1.4109993E3],"tree_param":{"num_deleted":"0","num_feature":"12","num_nodes":"29","size_leaf_vector":"1"}},{"base_weights":[-3.973019E-3,4.8663814E-2,-1.3998653E-1,-7.917841E-2,1.4278202E-1,-9.993748E-2,-3.770751E-1,2.9274639E-2,-3.0767542E-1,4.4085342E-1,7.031426E-3,-3.2616252E-1,1.8000723E-1,1.6421147E-2,-2.5281948E-1,2.5507288E-2,1.8728046E-1,-1.926956E-1,3.1876635E-2,-3.405426E-2,-5.313015E-1,1.6842559E-1,-4.683165E-3],"categories":[],"categories_nodes":[],"categories_segments":[],"categories_sizes":[],"default_left":[0,0,0,0,0,0,0,0,0,0,0,0,0,0,0,0,0,0,0,0,0,0,0],"id":27,"left_children":[1,3,5,7,9,11,-1,13,-1,15,17,19,21,-1,-1,-1,-1,-1,-1,-1,-1,-1,-1],"loss_changes":[1.8546785E1,2.2485403E1,3.220715E1,8.1388794E1,4.3541977E1,4.4318916E1,0E0,1.585796E1,0E0,2.19236E1,4.7774796E1,1.1866518E2,2.3361729E1,0E0,0E0,0E0,0E0,0E0,0E0,0E0,0E0,0E0,0E0],"parents":[2147483647,0,0,1,1,2,2,3,3,4,4,5,5,7,7,9,9,10,10,11,11,12,12],"right_children":[2,4,6,8,10,12,-1,14,-1,16,18,20,22,-1,-1,-1,-1,-1,-1,-1,-1,-1,-1],"split_conditions":[7.346E1,3.5E1,2.481E1,2.009E1,2.152E1,2.361E1,-3.770751E-1,1.973E1,-3.0767542E-1,2.126E1,3.8E1,2.307E1,2.383E1,1.6421147E-2,-2.5281948E-1,2.5507288E-2,1.8728046E-1,-1.926956E-1,3.1876635E-2,-3.405426E-2,-5.313015E-1,1.6842559E-1,-4.683165E-3],"split_indices":[2,4,6,6,3,6,0,3,0,6,4,6,6,0,0,0,0,0,0,0,0,0,0],"split_type":[0,0,0,0,0,0,0,0,0,0,0,0,0,0,0,0,0,0,0,0,0,0,0],"sum_hessian":[2.5886274E3,1.8668169E3,7.218105E2,7.9165643E2,1.0751604E3,6.9787665E2,2.3933836E1,7.111334E2,8.052298E1,3.357335E2,7.39427E2,3.8587976E2,3.1199686E2,6.9186816E2,1.9265266E1,1.1469191E2,2.2104158E2,9.728605E1,6.421409E2,3.373134E2,4.856638E1,1.0513565E2,2.0686122E2],"tree_param":{"num_deleted":"0","num_feature":"12","num_nodes":"23","size_leaf_vector":"1"}},{"base_weights":[-4.828732E-3,6.0028154E-3,-5.802694E-1,-6.867336E-2,1.0277167E-1,-3.86896E-1,-2.1107563E-1,1.4663263E-2,-1.0280206E0,6.735174E-1,1.1065953E-2,2.2502762E-1,-2.8656846E-1,-2.2974093E-2,6.1423454E-2,2.9904157E-1,-3.2119024E-1,2.6109996E-1,9.981275E-3,-1.3228332E-1,2.925456E-2,-1.9483657E-1,1.4120089E-1],"categories":[],"categories_nodes":[],"categories_segments":[],"categories_sizes":[],"default_left":[0,0,0,0,0,0,0,0,0,0,0,0,0,0,0,0,0,0,0,0,0,0,0],"id":28,"left_children":[1,3,5,7,9,-1,11,13,15,17,19,21,-1,-1,-1,-1,-1,-1,-1,-1,-1,-1,-1],"loss_changes":[1.5711045E1,1.7888823E1,1.1924425E1,1.11727516E2,5.6427784E1,0E0,1.05429735E1,2.2330235E1,1.07046585E1,1.877771E1,3.6382957E1,4.789812E0,0E0,0E0,0E0,0E0,0E0,0E0,0E0,0E0,0E0,0E0,0E0],"parents":[2147483647,0,0,1,1,2,2,3,3,4,4,6,6,7,7,8,8,9,9,10,10,11,11],"right_children":[2,4,6,8,10,-1,12,14,16,18,20,22,-1,-1,-1,-1,-1,-1,-1,-1,-1,-1,-1],"split_conditions":[2.537E1,3.8E1,2.895E1,2.191E1,2.299E1,-3.86896E-1,2.579E1,2.438E1,2.027E1,2.259E1,2.361E1,2.328E1,-2.8656846E-1,-2.2974093E-2,6.1423454E-2,2.9904157E-1,-3.2119024E-1,2.6109996E-1,9.981275E-3,-1.3228332E-1,2.925456E-2,-1.9483657E-1,1.4120089E-1],"split_indices":[6,4,8,6,6,0,6,1,3,3,6,3,0,0,0,0,0,0,0,0,0,0,0],"split_type":[0,0,0,0,0,0,0,0,0,0,0,0,0,0,0,0,0,0,0,0,0,0,0],"sum_hessian":[2.5190999E3,2.47353E3,4.5569805E1,1.3963004E3,1.0772296E3,1.4745E1,3.0824806E1,1.285607E3,1.1069344E2,1.482468E2,9.289828E2,1.9874914E1,1.0949892E1,8.690432E2,4.165638E2,1.820048E0,1.088734E2,1.13115135E2,3.5131664E1,1.4848907E2,7.804937E2,3.9980366E0,1.5876878E1],"tree_param":{"num_deleted":"0","num_feature":"12","num_nodes":"23","size_leaf_vector":"1"}},{"base_weights":[-4.354314E-3,4.2983793E-2,-1.4524382E-1,8.942371E-2,-1.9153312E-1,-1.0716122E-1,-9.855219E-1,-1.4678995E-1,1.2598535E-1,-1.1445707E-1,-1.1065528E0,-2.3445182E-1,1.18391804E-1,-1.7058799E0,3.2278427E-1,-2.4268705E-1,-8.047493E-3,1.5269578E-1,2.4887193E-2,-6.8205014E-2,9.639937E-2,5.7968263E-2,-3.9074948E-1,1.4509837E-2,-1.3429096E-1,3.0294746E-1,1.3714088E-3,-8.818562E-1,-2.3567562E-1,2.610667E-1,-4.4731036E-1],"categories":[],"categories_nodes":[],"categories_segments":[],"categories_sizes":[],"default_left":[0,0,0,0,0,0,0,0,0,0,0,0,0,0,0,0,0,0,0,0,0,0,0,0,0,0,0,0,0,0,0],"id":29,"left_children":[1,3,5,7,9,11,13,15,17,19,21,23,25,27,29,-1,-1,-1,-1,-1,-1,-1,-1,-1,-1,-1,-1,-1,-1,-1,-1],"loss_changes":[1.6388626E1,2.004942E1,1.9669796E1,1.3283979E1,2.1337868E1,1.7033442E1,2.5687151E1,1.6369404E1,2.1886791E1,1.3937832E1,6.244316E0,2.2870441E1,2.174345E1,1.7399586E1,1.1536533E1,0E0,0E0,0E0,0E0,0E0,0E0,0E0,0E0,0E0,0E0,0E0,0E0,0E0,0E0,0E0,0E0],"parents":[2147483647,0,0,1,1,2,2,3,3,4,4,5,5,6,6,7,7,8,8,9,9,10,10,11,11,12,12,13,13,14,14],"right_children":[2,4,6,8,10,12,14,16,18,20,22,24,26,28,30,-1,-1,-1,-1,-1,-1,-1,-1,-1,-1,-1,-1,-1,-1,-1,-1],"split_conditions":[2.36E2,7.822E1,2.704E1,6.2E1,2.436E1,2.422E1,2.871E1,1.909E1,1.374E1,2.452E1,1.431E1,1.93E1,2.315E1,2.621E1,2.481E1,-2.4268705E-1,-8.047493E-3,1.5269578E-1,2.4887193E-2,-6.8205014E-2,9.639937E-2,5.7968263E-2,-3.9074948E-1,1.4509837E-2,-1.3429096E-1,3.0294746E-1,1.3714088E-3,-8.818562E-1,-2.3567562E-1,2.610667E-1,-4.4731036E-1],"split_indices":[0,2,8,0,6,8,1,7,9,7,9,6,6,7,6,0,0,0,0,0,0,0,0,0,0,0,0,0,0,0,0],"split_type":[0,0,0,0,0,0,0,0,0,0,0,0,0,0,0,0,0,0,0,0,0,0,0,0,0,0,0,0,0,0,0],"sum_hessian":[2.4553345E3,1.8383529E3,6.169816E2,1.5350043E3,3.033486E2,5.913101E2,2.5671494E1,2.0534137E2,1.329663E3,2.808191E2,2.2529512E1,3.77966E2,2.1334415E2,1.6359829E1,9.311665E0,3.0614767E1,1.7472661E2,1.3319963E2,1.1964633E3,2.2341951E2,5.739956E1,2.9532628E0,1.957625E1,1.6278418E2,2.1518181E2,2.32647E1,1.9007945E2,6.052474E0,1.0307356E1,7.552448E0,1.7592168E0],"tree_param":{"num_deleted":"0","num_feature":"12","num_nodes":"31","size_leaf_vector":"1"}},{"base_weights":[-3.129404E-3,6.0167164E-1,-1.2062805E-2,6.906377E-1,-1.8517727E-1,-3.6716208E-1,1.7496776E-2,8.111463E-1,4.6152737E-2,-5.1880074E-1,5.175039E-1,7.4495393E-1,-5.157121E-3,2.6020628E-1,-3.7424512E-2,-3.7927946E-1,1.7166673E-1,-2.2978814E-2,-2.3650318E-1,2.3518491E-1,-2.9619794E-2,2.4864508E-1,-2.9522437E-1,-3.052736E-1,3.3528951E-3],"categories":[],"categories_nodes":[],"categories_segments":[],"categories_sizes":[],"default_left":[0,0,0,0,0,0,0,0,0,0,0,0,0,0,0,0,0,0,0,0,0,0,0,0,0],"id":30,"left_children":[1,3,5,7,-1,9,11,13,15,17,19,21,23,-1,-1,-1,-1,-1,-1,-1,-1,-1,-1,-1,-1],"loss_changes":[1.3154934E1,4.269561E0,2.5187672E1,2.5644875E0,0E0,2.5005537E1,3.651627E1,1.5897465E0,5.0925236E0,1.876215E1,4.589944E0,1.0519077E1,3.5559105E1,0E0,0E0,0E0,0E0,0E0,0E0,0E0,0E0,0E0,0E0,0E0,0E0],"parents":[2147483647,0,0,1,1,2,2,3,3,5,5,6,6,7,7,8,8,9,9,10,10,11,11,12,12],"right_children":[2,4,6,8,-1,10,12,14,16,18,20,22,24,-1,-1,-1,-1,-1,-1,-1,-1,-1,-1,-1,-1],"split_conditions":[1.802E1,1.861E1,1.887E1,7.598E1,-1.8517727E-1,2.665E1,1.93E1,3.42E2,9.84E0,1.834E1,1.863E1,7.95E1,9.41E0,2.6020628E-1,-3.7424512E-2,-3.7927946E-1,1.7166673E-1,-2.2978814E-2,-2.3650318E-1,2.3518491E-1,-2.9619794E-2,2.4864508E-1,-2.9522437E-1,-3.052736E-1,3.3528951E-3],"split_indices":[6,3,6,2,0,10,7,0,11,6,6,2,1,0,0,0,0,0,0,0,0,0,0,0,0],"split_type":[0,0,0,0,0,0,0,0,0,0,0,0,0,0,0,0,0,0,0,0,0,0,0,0,0],"sum_hessian":[2.4324343E3,3.4440258E1,2.3979941E3,3.2501476E1,1.9387823E0,1.8339911E2,2.214595E3,2.7163696E1,5.337781E0,1.5691605E2,2.6483067E1,6.591944E1,2.1486755E3,2.5693811E1,1.4698839E0,1.12707E0,4.210711E0,5.9911373E1,9.700467E1,1.8298906E1,8.18416E0,6.3366634E1,2.5528088E0,3.3141045E1,2.1155344E3],"tree_param":{"num_deleted":"0","num_feature":"12","num_nodes":"25","size_leaf_vector":"1"}},{"base_weights":[-1.7792812E-3,3.0318718E-2,-1.6388348E-1,-2.0830952E-2,2.5401E-1,-1.2415506E0,-8.905826E-2,-3.4184412E-3,-2.102998E0,-2.7651715E-1,2.848105E-1,-1.4114895E0,-4.8019797E-1,-3.6826313E-2,-3.478523E-1,-5.617746E-3,2.2999069E-1,-1.7162172E-1,-6.642182E-1,9.846115E-2,-1.7951792E-1,-2.8787347E-2,-4.5762536E-1,-3.093822E-1,2.4726506E-1,1.2958007E-3,-3.9437187E-1],"categories":[],"categories_nodes":[],"categories_segments":[],"categories_sizes":[],"default_left":[0,0,0,0,0,0,0,0,0,0,0,0,0,0,0,0,0,0,0,0,0,0,0,0,0,0,0],"id":31,"left_children":[1,3,5,7,9,11,13,15,17,-1,19,21,23,25,-1,-1,-1,-1,-1,-1,-1,-1,-1,-1,-1,-1,-1],"loss_changes":[1.2597629E1,2.3129059E1,3.2157364E1,5.9662697E1,1.3885824E1,2.673664E0,2.0938772E1,1.926521E1,1.0538826E0,0E0,1.4275423E1,2.9502068E0,5.337205E0,1.8870975E1,0E0,0E0,0E0,0E0,0E0,0E0,0E0,0E0,0E0,0E0,0E0,0E0,0E0],"parents":[2147483647,0,0,1,1,2,2,3,3,4,4,5,5,6,6,7,7,8,8,10,10,11,11,12,12,13,13],"right_children":[2,4,6,8,10,12,14,16,18,-1,20,22,24,26,-1,-1,-1,-1,-1,-1,-1,-1,-1,-1,-1,-1,-1],"split_conditions":[2.422E1,2.473E1,1.49E1,2.398E1,3.8E1,7.81E1,8.043E1,2.392E1,3.8E1,-2.7651715E-1,8.527E1,5.746E1,1.521E1,2.94E2,-3.478523E-1,-5.617746E-3,2.2999069E-1,-1.7162172E-1,-6.642182E-1,9.846115E-2,-1.7951792E-1,-2.8787347E-2,-4.5762536E-1,-3.093822E-1,2.4726506E-1,1.2958007E-3,-3.9437187E-1],"split_indices":[6,8,10,6,4,2,2,3,4,0,2,2,9,0,0,0,0,0,0,0,0,0,0,0,0,0,0],"split_type":[0,0,0,0,0,0,0,0,0,0,0,0,0,0,0,0,0,0,0,0,0,0,0,0,0,0,0],"sum_hessian":[2.4191663E3,2.0200018E3,3.9916446E2,1.6448047E3,3.7519727E2,2.4903286E1,3.7426117E2,1.6321571E3,1.2647576E1,8.839652E0,3.663576E2,1.9660917E1,5.2423677E0,3.578352E2,1.6425955E1,1.6013015E3,3.0855497E1,1.2715123E0,1.1376063E1,3.4979974E2,1.6557869E1,1.713809E0,1.794711E1,3.8326051E0,1.4097629E0,3.476373E2,1.0197904E1],"tree_param":{"num_deleted":"0","num_feature":"12","num_nodes":"27","size_leaf_vector":"1"}},{"base_weights":[-2.8314278E-3,2.5182543E-3,-2.788252E-1,-1.6015703E-2,3.953272E-1,4.457804E-2,-1.3109608E-1,-3.3246166E-1,4.6216512E-1,6.18023E-4,2.9173973E-1,-2.2654878E-1,-1.2265805E-2,3.4814614E-1,9.311032E-2],"categories":[],"categories_nodes":[],"categories_segments":[],"categories_sizes":[],"default_left":[0,0,0,0,0,0,0,0,0,0,0,0,0,0,0],"id":32,"left_children":[1,3,-1,5,7,9,11,-1,13,-1,-1,-1,-1,-1,-1],"loss_changes":[1.1853288E1,1.7319275E1,0E0,1.5847899E1,1.1283743E1,5.8741734E1,4.409862E1,0E0,1.0593254E1,0E0,0E0,0E0,0E0,0E0,0E0],"parents":[2147483647,0,0,1,1,3,3,4,4,5,5,6,6,8,8],"right_children":[2,4,-1,6,8,10,12,-1,14,-1,-1,-1,-1,-1,-1],"split_conditions":[2.468E1,2.4E1,-2.788252E-1,2.315E1,1.335E1,2.43E1,2.361E1,-3.3246166E-1,1.506E1,6.18023E-4,2.9173973E-1,-2.2654878E-1,-1.2265805E-2,3.4814614E-1,9.311032E-2],"split_indices":[3,3,0,6,11,8,6,0,10,0,0,0,0,0,0],"split_type":[0,0,0,0,0,0,0,0,0,0,0,0,0,0,0],"sum_hessian":[2.389779E3,2.3770522E3,1.2726729E1,2.270865E3,1.06187294E2,1.4879966E3,7.8286835E2,3.8563948E0,1.023309E2,1.4237589E3,6.423771E1,9.794197E1,6.8492633E2,1.7085688E1,8.524522E1],"tree_param":{"num_deleted":"0","num_feature":"12","num_nodes":"15","size_leaf_vector":"1"}},{"base_weights":[-1.3984472E-3,-1.4154913E-2,3.5143712E-1,-4.413448E-3,-6.9775903E-1,1.7407413E-1,1.0129291E0,3.520576E-2,-1.1774249E-1,5.9436184E-1,-1.065621E0,3.9568368E-1,-2.9434764E-1,4.4946945E-1,-5.928691E-1,-2.359382E-1,1.30604645E-2,-3.1113459E-2,-4.4975597E-1,2.5513384E-1,1.1385316E-2,2.1529363E-1,-3.758791E-1,-8.400099E-3,2.393892E-1,-3.8181326E-1,1.7899549E-1,-2.855372E-1,6.46097E-2],"categories":[],"categories_nodes":[],"categories_segments":[],"categories_sizes":[],"default_left":[0,0,0,0,0,0,0,0,0,0,0,0,0,0,0,0,0,0,0,0,0,0,0,0,0,0,0,0,0],"id":33,"left_children":[1,3,5,7,9,11,13,15,17,19,21,23,25,-1,27,-1,-1,-1,-1,-1,-1,-1,-1,-1,-1,-1,-1,-1,-1],"loss_changes":[1.07483835E1,1.5343981E1,9.599705E0,1.0210965E1,1.6021055E1,7.062661E0,1.4456028E1,1.15669985E1,1.1262656E1,1.0814164E0,9.435812E0,7.8371763E0,1.9992712E1,0E0,1.5849694E0,0E0,0E0,0E0,0E0,0E0,0E0,0E0,0E0,0E0,0E0,0E0,0E0,0E0,0E0],"parents":[2147483647,0,0,1,1,2,2,3,3,4,4,5,5,6,6,7,7,8,8,9,9,10,10,11,11,12,12,14,14],"right_children":[2,4,6,8,10,12,14,16,18,20,22,24,26,-1,28,-1,-1,-1,-1,-1,-1,-1,-1,-1,-1,-1,-1,-1,-1],"split_conditions":[3.137E1,3.135E1,5.123E1,2.36E2,2.04E2,2.265E1,2.201E1,2.872E1,2.658E1,3.09E1,1.887E1,1.955E1,2.823E1,4.4946945E-1,2.86E1,-2.359382E-1,1.30604645E-2,-3.1113459E-2,-4.4975597E-1,2.5513384E-1,1.1385316E-2,2.1529363E-1,-3.758791E-1,-8.400099E-3,2.393892E-1,-3.8181326E-1,1.7899549E-1,-2.855372E-1,6.46097E-2],"split_indices":[1,11,2,0,0,8,6,2,7,1,6,6,8,0,8,0,0,0,0,0,0,0,0,0,0,0,0,0,0],"split_type":[0,0,0,0,0,0,0,0,0,0,0,0,0,0,0,0,0,0,0,0,0,0,0,0,0,0,0,0,0],"sum_hessian":[2.3859285E3,2.3036035E3,8.232492E1,2.2722305E3,3.137318E1,6.591466E1,1.641026E1,1.6841501E3,5.880802E2,6.816035E0,2.4557146E1,4.4851006E1,2.1063652E1,1.2653209E1,3.7570505E0,1.5963166E1,1.668187E3,5.8323157E2,4.8486557E0,4.3058476E0,2.5101867E0,2.0651035E0,2.2492043E1,2.2297522E1,2.2553486E1,9.835432E0,1.1228221E1,2.4786935E0,1.2783569E0],"tree_param":{"num_deleted":"0","num_feature":"12","num_nodes":"29","size_leaf_vector":"1"}},{"base_weights":[-6.546847E-4,7.3311036E-3,-4.991614E-1,5.5379426E-4,7.198572E-1,-3.6941758E-1,-1.6793391E-1,6.359122E-3,-9.0032625E-1,9.264447E-1,-7.3844886E-1,1.1810727E-1,-2.7342007E-1,2.943348E-3,-3.423068E-1,-4.5124817E-1,-7.340779E-2,-1.56613E-1,3.3397844E-1,-4.9387482E-1,1.6880044E-1,-1.0842162E-2,3.73845E-1],"categories":[],"categories_nodes":[],"categories_segments":[],"categories_sizes":[],"default_left":[0,0,0,0,0,0,0,0,0,0,0,0,0,0,0,0,0,0,0,0,0,0,0],"id":34,"left_children":[1,3,5,7,9,-1,11,13,15,17,19,21,-1,-1,-1,-1,-1,-1,-1,-1,-1,-1,-1],"loss_changes":[9.486116E0,1.1325446E1,8.905305E0,1.2161482E1,7.3413887E0,0E0,5.8551373E0,9.162195E0,5.5263767E0,5.938835E0,4.822228E0,3.5950532E0,0E0,0E0,0E0,0E0,0E0,0E0,0E0,0E0,0E0,0E0,0E0],"parents":[2147483647,0,0,1,1,2,2,3,3,4,4,6,6,7,7,8,8,9,9,10,10,11,11],"right_children":[2,4,6,8,10,-1,12,14,16,18,20,22,-1,-1,-1,-1,-1,-1,-1,-1,-1,-1,-1],"split_conditions":[2.537E1,2.704E1,2.895E1,2.523E1,2.74E1,-3.6941758E-1,2.579E1,9.177E1,2.684E1,2.523E1,3.273E1,2.43E1,-2.7342007E-1,2.943348E-3,-3.423068E-1,-4.5124817E-1,-7.340779E-2,-1.56613E-1,3.3397844E-1,-4.9387482E-1,1.6880044E-1,-1.0842162E-2,3.73845E-1],"split_indices":[6,7,8,6,7,0,6,2,7,6,1,3,0,0,0,0,0,0,0,0,0,0,0],"split_type":[0,0,0,0,0,0,0,0,0,0,0,0,0,0,0,0,0,0,0,0,0,0,0],"sum_hessian":[2.3809468E3,2.3443765E3,3.6570255E1,2.323279E3,2.1097473E1,1.0543819E1,2.6026436E1,2.3093901E3,1.3888914E1,1.879906E1,2.2984133E0,1.9402615E1,6.6238217E0,2.3034512E3,5.9387627E0,6.5563498E0,7.3325644E0,1.942606E0,1.6856455E1,1.1975877E0,1.1008255E0,1.7920181E1,1.4824318E0],"tree_param":{"num_deleted":"0","num_feature":"12","num_nodes":"23","size_leaf_vector":"1"}},{"base_weights":[-1.1709618E-3,-8.649211E-1,3.0965528E-3,-1.0892844E0,9.4124645E-2,5.384761E-1,-3.7368394E-3,-2.906471E-1,-4.042893E-1,6.2694114E-1,-1.4602503E-1,-6.1740386E-1,8.626255E-3,1.0922765E-1,-2.696405E-1,2.2406176E-1,1.2769872E-2,-4.0113953E-1,-7.394391E-2,1.4663541E-1,-6.203954E-4],"categories":[],"categories_nodes":[],"categories_segments":[],"categories_sizes":[],"default_left":[0,0,0,0,0,0,0,0,0,0,0,0,0,0,0,0,0,0,0,0,0],"id":35,"left_children":[1,3,5,7,-1,9,11,13,-1,15,-1,17,19,-1,-1,-1,-1,-1,-1,-1,-1],"loss_changes":[8.7456045E0,3.4264908E0,8.640439E0,1.6763058E0,0E0,3.004735E0,1.7701256E1,1.8103884E0,0E0,1.919199E0,0E0,1.1971092E1,1.1746544E1,0E0,0E0,0E0,0E0,0E0,0E0,0E0,0E0],"parents":[2147483647,0,0,1,1,2,2,3,3,5,5,6,6,7,7,9,9,11,11,12,12],"right_children":[2,4,6,8,-1,10,12,14,-1,16,-1,18,20,-1,-1,-1,-1,-1,-1,-1,-1],"split_conditions":[7E0,8.6E1,1.802E1,4E0,9.4124645E-2,1.861E1,1.909E1,9.41E0,-4.042893E-1,7.598E1,-1.4602503E-1,9.84E0,7.89E0,1.0922765E-1,-2.696405E-1,2.2406176E-1,1.2769872E-2,-4.0113953E-1,-7.394391E-2,1.4663541E-1,-6.203954E-4],"split_indices":[0,2,6,0,0,3,8,1,0,2,0,11,10,0,0,0,0,0,0,0,0],"split_type":[0,0,0,0,0,0,0,0,0,0,0,0,0,0,0,0,0,0,0,0,0],"sum_hessian":[2.370885E3,1.0664683E1,2.3602205E3,9.022969E0,1.6417134E0,2.876484E1,2.3314556E3,2.724778E0,6.2981915E0,2.6837557E1,1.9272826E0,4.507605E1,2.2863794E3,1.5053908E0,1.219387E0,2.203686E1,4.800697E0,1.4444192E1,3.0631859E1,4.88395E1,2.23754E3],"tree_param":{"num_deleted":"0","num_feature":"12","num_nodes":"21","size_leaf_vector":"1"}},{"base_weights":[-1.1609597E-3,2.377527E-3,-2.684106E-1,-1.1218026E-2,2.8967828E-1,2.3635963E-2,-1.5451638E-1,6.967128E-1,6.921091E-2,-2.654945E-4,2.623555E-1,-3.0722106E-1,-2.0445623E-2,2.7663285E-1,-1.3107446E-1,-1.8965913E-1,8.481005E-2],"categories":[],"categories_nodes":[],"categories_segments":[],"categories_sizes":[],"default_left":[0,0,0,0,0,0,0,0,0,0,0,0,0,0,0,0,0],"id":36,"left_children":[1,3,-1,5,7,9,11,13,15,-1,-1,-1,-1,-1,-1,-1,-1],"loss_changes":[7.481951E0,9.211144E0,0E0,1.1250376E1,9.513459E0,3.78099E1,3.3024624E1,9.940161E0,1.0694534E1,0E0,0E0,0E0,0E0,0E0,0E0,0E0,0E0],"parents":[2147483647,0,0,1,1,3,3,4,4,5,5,6,6,7,7,8,8],"right_children":[2,4,-1,6,8,10,12,14,16,-1,-1,-1,-1,-1,-1,-1,-1],"split_conditions":[2.468E1,2.4E1,-2.684106E-1,2.398E1,6.628E1,2.635E1,2.495E1,2.928E1,1.582E1,-2.654945E-4,2.623555E-1,-3.0722106E-1,-2.0445623E-2,2.7663285E-1,-1.3107446E-1,-1.8965913E-1,8.481005E-2],"split_indices":[3,3,0,6,2,8,8,1,1,0,0,0,0,0,0,0,0],"split_type":[0,0,0,0,0,0,0,0,0,0,0,0,0,0,0,0,0],"sum_hessian":[2.3646982E3,2.356364E3,8.334033E0,2.2508127E3,1.05551285E2,1.8111322E3,4.396807E2,3.632558E1,6.922571E1,1.7613715E3,4.9760693E1,3.8742878E1,4.009378E2,3.0456556E1,5.869024E0,1.569601E1,5.3529694E1],"tree_param":{"num_deleted":"0","num_feature":"12","num_nodes":"17","size_leaf_vector":"1"}},{"base_weights":[-5.236892E-4,-7.953185E-2,3.938425E-2,4.445195E-2,-6.998459E-1,8.099608E-1,6.573648E-3,4.27973E-3,4.4919944E-1,-9.910783E-1,-2.8433084E-2,8.793436E-1,-6.320601E-1,-4.7940138E-1,2.5285622E-2,2.519728E-2,-1.1866757E-1,-1.9586585E-1,2.335319E-1,3.8315486E-2,-3.1340146E-1,1.1524197E-1,-3.1677186E-1,-2.0846957E-1,2.757495E-1,-3.6317983E-1,1.1256595E-1,-1.4509672E-1,1.631657E-2],"categories":[],"categories_nodes":[],"categories_segments":[],"categories_sizes":[],"default_left":[0,0,0,0,0,0,0,0,0,0,0,0,0,0,0,0,0,0,0,0,0,0,0,0,0,0,0,0,0],"id":37,"left_children":[1,3,5,7,9,11,13,15,17,19,21,23,25,-1,27,-1,-1,-1,-1,-1,-1,-1,-1,-1,-1,-1,-1,-1,-1],"loss_changes":[7.433025E0,6.087659E1,3.959494E1,1.0734152E1,2.5752602E1,6.954994E0,4.5177208E1,1.9209805E1,2.2137299E1,5.645462E0,1.7750788E1,4.4903793E0,2.5043135E0,0E0,2.2050865E1,0E0,0E0,0E0,0E0,0E0,0E0,0E0,0E0,0E0,0E0,0E0,0E0,0E0,0E0],"parents":[2147483647,0,0,1,1,2,2,3,3,4,4,5,5,6,6,7,7,8,8,9,9,10,10,11,11,12,12,14,14],"right_children":[2,4,6,8,10,12,14,16,18,20,22,24,26,-1,28,-1,-1,-1,-1,-1,-1,-1,-1,-1,-1,-1,-1,-1,-1],"split_conditions":[3.5E1,1.971E1,2.042E1,2.042E1,2.843E1,2.088E1,2.114E1,1.93E1,1.829E1,1.829E1,2.12E2,3.2E1,2.266E1,-4.7940138E-1,2.114E1,2.519728E-2,-1.1866757E-1,-1.9586585E-1,2.335319E-1,3.8315486E-2,-3.1340146E-1,1.1524197E-1,-3.1677186E-1,-2.0846957E-1,2.757495E-1,-3.6317983E-1,1.1256595E-1,-1.4509672E-1,1.631657E-2],"split_indices":[4,6,6,7,9,3,8,6,3,3,0,0,11,0,6,0,0,0,0,0,0,0,0,0,0,0,0,0,0],"split_type":[0,0,0,0,0,0,0,0,0,0,0,0,0,0,0,0,0,0,0,0,0,0,0,0,0,0,0,0,0],"sum_hessian":[2.3554124E3,7.901372E2,1.5652753E3,6.5929126E2,1.3084593E2,6.2959026E1,1.5023162E3,6.0068256E2,5.86087E1,9.092859E1,3.9917347E1,6.04411E1,2.5179222E0,1.634459E1,1.4859716E3,5.0149512E2,9.918743E1,1.3255328E1,4.535337E1,4.093378E0,8.6835205E1,2.8927778E1,1.0989568E1,1.0853193E0,5.935578E1,1.4711215E0,1.0468005E0,7.953173E1,1.40644E3],"tree_param":{"num_deleted":"0","num_feature":"12","num_nodes":"29","size_leaf_vector":"1"}},{"base_weights":[-1.5889873E-3,1.2272227E-2,-2.4317953E-1,-3.6133233E-2,8.144533E-2,-1.1798879E0,-5.4416068E-2,3.3630047E-2,-9.2164004E-1,7.0866907E-1,1.8106664E-2,1.5674645E-1,-1.4599189E0,-3.8445467E-1,5.6654215E-2,2.0484783E-2,-1.1542307E-1,-3.2397568E-1,1.950576E-1,2.3384568E-1,-2.6981455E-1,-5.062492E-1,1.4508388E-2,-5.148787E-1,-3.1062636E-1,3.0973125E-1,-2.2958856E-2],"categories":[],"categories_nodes":[],"categories_segments":[],"categories_sizes":[],"default_left":[0,0,0,0,0,0,0,0,0,0,0,0,0,0,0,0,0,0,0,0,0,0,0,0,0,0,0],"id":38,"left_children":[1,3,5,7,9,11,13,15,17,19,21,-1,23,-1,25,-1,-1,-1,-1,-1,-1,-1,-1,-1,-1,-1,-1],"loss_changes":[7.736E0,7.3187065E0,2.2099833E1,7.948028E1,3.5733704E1,1.0762135E1,1.4434649E1,1.7323946E1,2.4077797E1,1.0096233E1,4.2307335E1,0E0,2.11689E-1,0E0,1.2761218E1,0E0,0E0,0E0,0E0,0E0,0E0,0E0,0E0,0E0,0E0,0E0,0E0],"parents":[2147483647,0,0,1,1,2,2,3,3,4,4,5,5,6,6,7,7,8,8,9,9,10,10,12,12,14,14],"right_children":[2,4,6,8,10,12,14,16,18,20,22,-1,24,-1,26,-1,-1,-1,-1,-1,-1,-1,-1,-1,-1,-1,-1],"split_conditions":[2.495E1,3.8E1,1.46E2,2.18E1,2.281E1,5.06E1,2.621E1,3.04E2,3.197E1,2.36E1,2.361E1,1.5674645E-1,2.376E1,-3.8445467E-1,2.74E1,2.0484783E-2,-1.1542307E-1,-3.2397568E-1,1.950576E-1,2.3384568E-1,-2.6981455E-1,-5.062492E-1,1.4508388E-2,-5.148787E-1,-3.1062636E-1,3.0973125E-1,-2.2958856E-2],"split_indices":[6,4,0,6,6,2,7,0,1,3,8,0,3,0,8,0,0,0,0,0,0,0,0,0,0,0,0],"split_type":[0,0,0,0,0,0,0,0,0,0,0,0,0,0,0,0,0,0,0,0,0,0,0,0,0,0,0],"sum_hessian":[2.308233E3,2.1838823E3,1.24350655E2,1.2850894E3,8.9879297E2,1.9975388E1,1.0437527E2,1.1921311E3,9.295818E1,8.150317E1,8.172898E2,2.6993802E0,1.7276007E1,7.7886577E0,9.658661E1,1.1017163E3,9.041486E1,8.473825E1,8.219937E0,7.855879E1,2.944369E0,1.3289996E1,8.039998E2,8.874112E0,8.401895E0,1.0788879E1,8.579773E1],"tree_param":{"num_deleted":"0","num_feature":"12","num_nodes":"27","size_leaf_vector":"1"}},{"base_weights":[-2.7922196E-3,3.7386008E-2,-8.2811214E-2,-5.0380986E-2,1.1187764E-1,-4.9284063E-2,-8.205017E-1,2.649578E-2,-8.6704344E-1,3.8180992E-1,-8.574512E-3,-9.656159E-2,6.067964E-1,-4.406887E-1,-1.7953893E0,1.0473982E-1,-5.3738244E-3,-3.072576E-1,5.4818545E-2,1.5001291E-1,-4.1285675E-2,-2.3326384E-1,1.8083258E-2,-2.4240801E-2,-7.3503774E-1,-1.7578563E-1,2.654188E-1,5.3852547E-2,-3.5313836E-1,-9.695571E-1,-2.8061974E-1],"categories":[],"categories_nodes":[],"categories_segments":[],"categories_sizes":[],"default_left":[0,0,0,0,0,0,0,0,0,0,0,0,0,0,0,0,0,0,0,0,0,0,0,0,0,0,0,0,0,0,0],"id":39,"left_children":[1,3,5,7,9,11,13,15,17,19,21,23,25,27,29,-1,-1,-1,-1,-1,-1,-1,-1,-1,-1,-1,-1,-1,-1,-1,-1],"loss_changes":[7.2713656E0,9.849901E0,1.865747E1,4.3465492E1,2.6494556E1,2.2521698E1,1.1354452E1,9.081378E0,1.0013226E1,1.5509224E1,2.9926575E1,2.4888836E1,1.6701006E1,1.1598005E1,7.9359493E0,0E0,0E0,0E0,0E0,0E0,0E0,0E0,0E0,0E0,0E0,0E0,0E0,0E0,0E0,0E0,0E0],"parents":[2147483647,0,0,1,1,2,2,3,3,4,4,5,5,6,6,7,7,8,8,9,9,10,10,11,11,12,12,13,13,14,14],"right_children":[2,4,6,8,10,12,14,16,18,20,22,24,26,28,30,-1,-1,-1,-1,-1,-1,-1,-1,-1,-1,-1,-1,-1,-1,-1,-1],"split_conditions":[7.168E1,3.5E1,2.723E1,1.99E1,2.18E1,2.655E1,2.383E1,1.834E1,3.347E1,2.854E1,3.8E1,2.725E1,2.62E1,2.27E2,2.406E1,1.0473982E-1,-5.3738244E-3,-3.072576E-1,5.4818545E-2,1.5001291E-1,-4.1285675E-2,-2.3326384E-1,1.8083258E-2,-2.4240801E-2,-7.3503774E-1,-1.7578563E-1,2.654188E-1,5.3852547E-2,-3.5313836E-1,-9.695571E-1,-2.8061974E-1],"split_indices":[2,4,9,6,6,11,6,6,9,9,4,1,1,0,6,0,0,0,0,0,0,0,0,0,0,0,0,0,0,0,0],"split_type":[0,0,0,0,0,0,0,0,0,0,0,0,0,0,0,0,0,0,0,0,0,0,0,0,0,0,0,0,0,0,0],"sum_hessian":[2.2597222E3,1.5047213E3,7.5500073E2,6.909541E2,8.137673E2,7.23199E2,3.1801723E1,6.323913E2,5.856279E1,2.5041638E2,5.633509E2,6.753833E2,4.781568E1,2.3930515E1,7.8712087E0,7.56823E1,5.56709E2,5.0958748E1,7.6040425E0,2.0401543E2,4.6400948E1,4.5450092E1,5.1790076E2,6.7191864E2,3.4646814E0,8.826883E0,3.89888E1,1.3401011E1,1.0529504E1,1.914817E0,5.956392E0],"tree_param":{"num_deleted":"0","num_feature":"12","num_nodes":"31","size_leaf_vector":"1"}},{"base_weights":[-3.402256E-3,-1.967346E-1,1.596458E-2,1.4080167E-1,-4.475747E-1,5.4984826E-1,-8.6541404E-4,-2.1574444E-1,7.0824283E-1,4.297947E-1,-6.719482E-1,-2.9830658E-1,6.1025375E-1,-6.024227E-1,1.9553613E-2,-1.96211E-2,-7.005178E-1,2.4293551E-1,-7.6008886E-2,-3.4217682E-1,2.3771521E-1,-3.011537E-1,2.5921587E-2,8.481544E-2,2.7232617E-1,-2.5300965E-1,8.174148E-2,1.00016475E-1,-4.3285573E-3],"categories":[],"categories_nodes":[],"categories_segments":[],"categories_sizes":[],"default_left":[0,0,0,0,0,0,0,0,0,0,0,0,0,0,0,0,0,0,0,0,0,0,0,0,0,0,0,0,0],"id":40,"left_children":[1,3,5,7,9,11,13,15,17,19,21,-1,23,25,27,-1,-1,-1,-1,-1,-1,-1,-1,-1,-1,-1,-1,-1,-1],"loss_changes":[8.326853E0,1.720753E1,1.8164911E1,1.7772402E1,2.3203846E1,6.369711E0,2.4096704E1,1.7132172E1,3.5093174E0,1.4749357E1,2.3516521E1,0E0,5.59725E0,1.380592E1,2.0240114E1,0E0,0E0,0E0,0E0,0E0,0E0,0E0,0E0,0E0,0E0,0E0,0E0,0E0,0E0],"parents":[2147483647,0,0,1,1,2,2,3,3,4,4,5,5,6,6,7,7,8,8,9,9,10,10,12,12,13,13,14,14],"right_children":[2,4,6,8,10,12,14,16,18,20,22,-1,24,26,28,-1,-1,-1,-1,-1,-1,-1,-1,-1,-1,-1,-1,-1,-1],"split_conditions":[1.887E1,1.834E1,1.93E1,1.795E1,5.5E1,1.887E1,1.126E1,1.748E1,1.829E1,1.863E1,2.027E1,-2.9830658E-1,1.259E1,2.361E1,2.06E1,-1.96211E-2,-7.005178E-1,2.4293551E-1,-7.6008886E-2,-3.4217682E-1,2.3771521E-1,-3.011537E-1,2.5921587E-2,8.481544E-2,2.7232617E-1,-2.5300965E-1,8.174148E-2,1.00016475E-1,-4.3285573E-3],"split_indices":[6,6,7,1,0,7,1,9,3,6,8,0,11,6,8,0,0,0,0,0,0,0,0,0,0,0,0,0,0],"split_type":[0,0,0,0,0,0,0,0,0,0,0,0,0,0,0,0,0,0,0,0,0,0,0,0,0,0,0,0,0],"sum_hessian":[2.2220735E3,2.0149191E2,2.0205815E3,8.608824E1,1.1540367E2,6.0781784E1,1.9597998E3,5.3249336E1,3.28389E1,2.3315882E1,9.208779E1,1.7060872E0,5.90757E1,6.3403053E1,1.8963967E3,5.0684704E1,2.5646307E0,2.9845236E1,2.9936683E0,3.9711306E0,1.934475E1,6.3828983E1,2.8258806E1,2.9046734E1,3.0028965E1,4.974069E1,1.3662366E1,1.8441953E2,1.7119772E3],"tree_param":{"num_deleted":"0","num_feature":"12","num_nodes":"29","size_leaf_vector":"1"}},{"base_weights":[-1.999981E-3,3.2113746E-2,-1.0400417E-1,-4.4553228E-2,1.0124069E-1,-7.7236414E-2,-6.9408494E-1,4.152858E-2,-6.5849006E-1,7.739293E-1,7.850637E-2,-9.73469E-2,8.493613E-1,-9.045408E-2,-1.943287E0,1.7803054E-2,-3.36381E-1,4.858231E-2,-2.7911782E-1,-2.8044254E-1,2.6124054E-1,-1.1531197E-1,3.7456263E-2,-1.6914416E-2,-2.2384837E-1,-8.664236E-2,3.044278E-1,-4.9350968E-1,1.4721382E-1,-7.956049E-1,-3.8057923E-1],"categories":[],"categories_nodes":[],"categories_segments":[],"categories_sizes":[],"default_left":[0,0,0,0,0,0,0,0,0,0,0,0,0,0,0,0,0,0,0,0,0,0,0,0,0,0,0,0,0,0,0],"id":41,"left_children":[1,3,5,7,9,11,13,15,17,19,21,23,25,27,29,-1,-1,-1,-1,-1,-1,-1,-1,-1,-1,-1,-1,-1,-1,-1,-1],"loss_changes":[7.697863E0,8.79055E0,8.703417E0,4.1605385E1,1.3276131E1,9.986452E0,1.7871202E1,1.4379301E1,2.1745632E1,5.5145397E0,1.8169476E1,1.3807909E1,2.4377756E0,1.6333223E1,3.4069633E-1,0E0,0E0,0E0,0E0,0E0,0E0,0E0,0E0,0E0,0E0,0E0,0E0,0E0,0E0,0E0,0E0],"parents":[2147483647,0,0,1,1,2,2,3,3,4,4,5,5,6,6,7,7,8,8,9,9,10,10,11,11,12,12,13,13,14,14],"right_children":[2,4,6,8,10,12,14,16,18,20,22,24,26,28,30,-1,-1,-1,-1,-1,-1,-1,-1,-1,-1,-1,-1,-1,-1,-1,-1],"split_conditions":[2.36E2,1.864E1,2.704E1,1.743E1,1.863E1,2.955E1,6.126E1,2.481E1,1.611E1,1.962E1,1.93E1,2.799E1,2.114E1,2.787E1,2.46E2,1.7803054E-2,-3.36381E-1,4.858231E-2,-2.7911782E-1,-2.8044254E-1,2.6124054E-1,-1.1531197E-1,3.7456263E-2,-1.6914416E-2,-2.2384837E-1,-8.664236E-2,3.044278E-1,-4.9350968E-1,1.4721382E-1,-7.956049E-1,-3.8057923E-1],"split_indices":[0,1,8,10,6,10,2,6,9,1,6,9,8,9,0,0,0,0,0,0,0,0,0,0,0,0,0,0,0,0,0],"split_type":[0,0,0,0,0,0,0,0,0,0,0,0,0,0,0,0,0,0,0,0,0,0,0,0,0,0,0,0,0,0,0],"sum_hessian":[2.2102334E3,1.6568204E3,5.534129E2,7.857358E2,8.710846E2,5.3047974E2,2.2933182E1,6.89931E2,9.58048E1,2.7396734E1,8.4368787E2,5.200869E2,1.0392805E1,1.6184855E1,6.748326E0,6.804549E2,9.476109E0,2.3948305E1,7.18565E1,1.0057851E0,2.639095E1,7.612528E1,7.6756256E2,4.9022168E2,2.986523E1,1.223979E0,9.168826E0,3.9060073E0,1.2278848E1,1.8618361E0,4.8864894E0],"tree_param":{"num_deleted":"0","num_feature":"12","num_nodes":"31","size_leaf_vector":"1"}},{"base_weights":[-1.5753285E-3,1.1994615E-3,-3.1283838E-1,2.1962922E-2,-1.3245797E-1,-1.8495655E-2,1.75356E-1,-1.0576931E0,-6.731989E-2,-3.196969E-4,-4.7345796E-1,1.8689513E-1,2.6914695E-2,-1.5969908E-1,-4.1058442E-1,-3.2024142E-1,-6.5938653E-3],"categories":[],"categories_nodes":[],"categories_segments":[],"categories_sizes":[],"default_left":[0,0,0,0,0,0,0,0,0,0,0,0,0,0,0,0,0],"id":42,"left_children":[1,3,-1,5,7,9,11,13,15,-1,-1,-1,-1,-1,-1,-1,-1],"loss_changes":[6.365647E0,6.102761E0,0E0,1.1815303E1,1.7749142E1,4.096625E1,1.5175871E1,2.4370346E0,1.25515585E1,0E0,0E0,0E0,0E0,0E0,0E0,0E0,0E0],"parents":[2147483647,0,0,1,1,3,3,4,4,5,5,6,6,7,7,8,8],"right_children":[2,4,-1,6,8,10,12,14,16,-1,-1,-1,-1,-1,-1,-1,-1],"split_conditions":[9.177E1,2.436E1,-3.1283838E-1,2.473E1,2.503E1,2.398E1,6.147E1,1.36E2,1.495E1,-3.196969E-4,-4.7345796E-1,1.8689513E-1,2.6914695E-2,-1.5969908E-1,-4.1058442E-1,-3.2024142E-1,-6.5938653E-3],"split_indices":[2,6,0,8,7,6,2,0,10,0,0,0,0,0,0,0,0],"split_type":[0,0,0,0,0,0,0,0,0,0,0,0,0,0,0,0,0],"sum_hessian":[2.2018499E3,2.196994E3,4.856015E0,1.902309E3,2.9468488E2,1.5059758E3,3.9633304E2,1.8379585E1,2.7630527E2,1.4903219E3,1.5654025E1,6.2641586E1,3.3369144E2,7.8416634E0,1.0537921E1,1.1005008E1,2.6530026E2],"tree_param":{"num_deleted":"0","num_feature":"12","num_nodes":"17","size_leaf_vector":"1"}},{"base_weights":[-2.08239E-3,3.572313E-2,-7.1538836E-2,1.6072994E-2,4.8909137E-1,-3.6862288E-2,-5.9387565E-1,2.287135E-2,-1.9268728E0,2.6401758E-1,9.5070785E-1,-8.968719E-1,-2.3263989E-2,-1.0555599E0,-2.5502038E-1,1.0066743E-2,-2.033409E-1,-7.602988E-1,-1.0752544E-2,1.3509923E-1,-1.9421832E-1,3.8992536E-1,-2.4637652E-3,-7.5307965E-2,-7.85576E-1,-2.3479445E-2,8.327676E-2,-1.3219872E-1,-5.286042E-1,2.2403048E-1,-1.2759157E-1],"categories":[],"categories_nodes":[],"categories_segments":[],"categories_sizes":[],"default_left":[0,0,0,0,0,0,0,0,0,0,0,0,0,0,0,0,0,0,0,0,0,0,0,0,0,0,0,0,0,0,0],"id":43,"left_children":[1,3,5,7,9,11,13,15,17,19,21,23,25,27,29,-1,-1,-1,-1,-1,-1,-1,-1,-1,-1,-1,-1,-1,-1,-1,-1],"loss_changes":[5.737293E0,1.2596881E1,1.3926674E1,1.7970177E1,5.852228E0,8.43692E0,7.2206535E0,1.0154634E1,5.3584137E0,7.232156E0,6.3263454E0,1.18308115E1,1.1819637E1,7.88818E0,5.2526107E0,0E0,0E0,0E0,0E0,0E0,0E0,0E0,0E0,0E0,0E0,0E0,0E0,0E0,0E0,0E0,0E0],"parents":[2147483647,0,0,1,1,2,2,3,3,4,4,5,5,6,6,7,7,8,8,9,9,10,10,11,11,12,12,13,13,14,14],"right_children":[2,4,6,8,10,12,14,16,18,20,22,24,26,28,30,-1,-1,-1,-1,-1,-1,-1,-1,-1,-1,-1,-1,-1,-1,-1,-1],"split_conditions":[2.05E2,3.007E1,3.057E1,3.057E1,4.155E1,2.1E2,3.081E1,2E2,3.09E1,2.126E1,2.375E1,2.829E1,2.871E1,2.912E1,3.135E1,1.0066743E-2,-2.033409E-1,-7.602988E-1,-1.0752544E-2,1.3509923E-1,-1.9421832E-1,3.8992536E-1,-2.4637652E-3,-7.5307965E-2,-7.85576E-1,-2.3479445E-2,8.327676E-2,-1.3219872E-1,-5.286042E-1,2.2403048E-1,-1.2759157E-1],"split_indices":[0,11,11,10,2,0,10,0,1,7,8,8,1,10,10,0,0,0,0,0,0,0,0,0,0,0,0,0,0,0,0],"split_type":[0,0,0,0,0,0,0,0,0,0,0,0,0,0,0,0,0,0,0,0,0,0,0,0,0,0,0,0,0,0,0],"sum_hessian":[2.182965E3,1.4138724E3,7.690928E2,1.3561298E3,5.7742676E1,7.222173E2,4.6875507E1,1.352386E3,3.743762E0,3.98733E1,1.7869379E1,1.0230737E1,7.119865E2,1.8946358E1,2.792915E1,1.3330112E3,1.9374743E1,2.5760672E0,1.1676947E0,3.3525772E1,6.3475266E0,1.2840173E1,5.029206E0,8.273138E0,1.9575987E0,6.025673E2,1.0941918E2,1.0997714E1,7.9486437E0,3.5658407E0,2.436331E1],"tree_param":{"num_deleted":"0","num_feature":"12","num_nodes":"31","size_leaf_vector":"1"}},{"base_weights":[-1.5244241E-3,-7.6486665E-1,1.7964292E-3,-1.0013219E0,8.529021E-2,4.3696915E-3,-2.6288316E-1,-6.4529195E-2,-3.7117568E-1,-6.674288E-3,2.2899525E-1,1.1025491E-2,-2.6709577E-2,-2.174717E-1,1.0660296E-1],"categories":[],"categories_nodes":[],"categories_segments":[],"categories_sizes":[],"default_left":[0,0,0,0,0,0,0,0,0,0,0,0,0,0,0],"id":44,"left_children":[1,3,5,7,-1,9,-1,-1,-1,11,13,-1,-1,-1,-1],"loss_changes":[5.529981E0,2.6288695E0,4.9126363E0,1.2053027E0,0E0,5.377716E0,0E0,0E0,0E0,7.3942595E0,1.2501053E1,0E0,0E0,0E0,0E0],"parents":[2147483647,0,0,1,1,2,2,3,3,5,5,9,9,10,10],"right_children":[2,4,6,8,-1,10,-1,-1,-1,12,14,-1,-1,-1,-1],"split_conditions":[7E0,8.6E1,2.579E1,4E0,8.529021E-2,2.4E1,-2.6288316E-1,-6.4529195E-2,-3.7117568E-1,2.324E1,2.368E1,1.1025491E-2,-2.6709577E-2,-2.174717E-1,1.0660296E-1],"split_indices":[0,2,6,0,0,3,0,0,0,6,6,0,0,0,0],"split_type":[0,0,0,0,0,0,0,0,0,0,0,0,0,0,0],"sum_hessian":[2.1799556E3,8.449301E0,2.171506E3,6.9324975E0,1.516803E0,2.166153E3,5.353055E0,2.0413873E0,4.89111E0,2.0655674E3,1.00585754E2,1.3528068E3,7.127606E2,1.1210608E1,8.937515E1],"tree_param":{"num_deleted":"0","num_feature":"12","num_nodes":"15","size_leaf_vector":"1"}},{"base_weights":[-1.5603541E-3,-2.0263135E-1,1.052603E-2,8.015917E-2,-6.873584E-1,3.3374774E-1,-3.2748005E-3,-6.8969053E-1,2.319437E-1,1.4187305E-1,-1.0797753E0,6.02649E-1,-5.1442707E-1,-7.884517E-1,6.8518748E-3,8.629267E-2,-4.5825228E-1,1.397095E-1,-1.3542607E-1,-2.9192698E-1,1.8309465E-1,-1.4959301E-1,-5.092087E-1,7.563244E-2,3.5193133E-1,-3.7093642E-1,1.469503E-1,7.3097914E-2,-3.003472E-1,5.8925416E-2,-4.082794E-3],"categories":[],"categories_nodes":[],"categories_segments":[],"categories_sizes":[],"default_left":[0,0,0,0,0,0,0,0,0,0,0,0,0,0,0,0,0,0,0,0,0,0,0,0,0,0,0,0,0,0,0],"id":45,"left_children":[1,3,5,7,9,11,13,15,17,19,21,23,25,27,29,-1,-1,-1,-1,-1,-1,-1,-1,-1,-1,-1,-1,-1,-1,-1,-1],"loss_changes":[5.3055096E0,1.7023388E1,9.187845E0,9.399821E0,1.5028614E1,1.9546722E1,1.5718067E1,1.1308758E1,1.0880706E1,8.72498E0,1.0331787E1,1.2602402E1,1.5718717E1,5.76985E0,7.573832E0,0E0,0E0,0E0,0E0,0E0,0E0,0E0,0E0,0E0,0E0,0E0,0E0,0E0,0E0,0E0,0E0],"parents":[2147483647,0,0,1,1,2,2,3,3,4,4,5,5,6,6,7,7,8,8,9,9,10,10,11,11,12,12,13,13,14,14],"right_children":[2,4,6,8,10,12,14,16,18,20,22,24,26,28,30,-1,-1,-1,-1,-1,-1,-1,-1,-1,-1,-1,-1,-1,-1,-1,-1],"split_conditions":[1.909E1,1.834E1,1.93E1,5.5E1,9.2E0,1.658E1,9.41E0,1.802E1,2.97E2,1.887E1,5.869E1,1.277E1,1.887E1,1.909E1,1.368E1,8.629267E-2,-4.5825228E-1,1.397095E-1,-1.3542607E-1,-2.9192698E-1,1.8309465E-1,-1.4959301E-1,-5.092087E-1,7.563244E-2,3.5193133E-1,-3.7093642E-1,1.469503E-1,7.3097914E-2,-3.003472E-1,5.8925416E-2,-4.082794E-3],"split_indices":[7,6,7,0,9,10,1,6,0,7,2,11,6,6,9,0,0,0,0,0,0,0,0,0,0,0,0,0,0,0,0],"split_type":[0,0,0,0,0,0,0,0,0,0,0,0,0,0,0,0,0,0,0,0,0,0,0,0,0,0,0,0,0,0,0],"sum_hessian":[2.1812607E3,1.2278726E2,2.0584736E3,7.8073616E1,4.4713646E1,8.334368E1,1.9751299E3,1.2274349E1,6.579926E1,1.4567969E1,3.0145678E1,6.350108E1,1.9842596E1,2.4170864E1,1.950959E3,5.9685616E0,6.305787E0,4.9265724E1,1.653354E1,3.9911501E0,1.0576819E1,1.6462414E1,1.3683264E1,4.022503E1,2.327605E1,1.1408843E1,8.433754E0,4.105281E0,2.0065582E1,1.8922763E2,1.7617313E3],"tree_param":{"num_deleted":"0","num_feature":"12","num_nodes":"31","size_leaf_vector":"1"}},{"base_weights":[-1.5766168E-3,-9.935387E-2,2.9865973E-2,-1.0313956E-4,-7.064805E-1,4.5344537E-1,1.4853336E-2,2.2159085E-2,-3.500651E-1,-2.5328654E-1,-1.5038404E0,-8.2050985E-1,6.210615E-1,4.651655E-3,6.73942E-1,-2.570519E-2,6.316551E-2,-3.9907327E-1,-6.299164E-3,-6.1584574E-1,-1.8289083E-1,2.534392E-1,-4.7366017E-1,-2.4382411E-1,2.3626493E-1,5.144725E-3,-4.049962E-1,2.7591622E-1,-4.6730492E-1],"categories":[],"categories_nodes":[],"categories_segments":[],"categories_sizes":[],"default_left":[0,0,0,0,0,0,0,0,0,0,0,0,0,0,0,0,0,0,0,0,0,0,0,0,0,0,0,0,0],"id":46,"left_children":[1,3,5,7,9,11,13,15,-1,17,19,21,23,25,27,-1,-1,-1,-1,-1,-1,-1,-1,-1,-1,-1,-1,-1,-1],"loss_changes":[6.679248E0,3.1854403E1,1.0447254E1,1.1853894E1,2.6459686E1,1.2518257E1,1.0679113E1,9.11624E0,0E0,1.21205845E1,1.1862896E1,1.013587E1,1.2639582E1,2.652645E1,1.471101E1,0E0,0E0,0E0,0E0,0E0,0E0,0E0,0E0,0E0,0E0,0E0,0E0,0E0,0E0],"parents":[2147483647,0,0,1,1,2,2,3,3,4,4,5,5,6,6,7,7,9,9,10,10,11,11,12,12,13,13,14,14],"right_children":[2,4,6,8,10,12,14,16,-1,18,20,22,24,26,28,-1,-1,-1,-1,-1,-1,-1,-1,-1,-1,-1,-1,-1,-1],"split_conditions":[1.577E1,1.537E1,7.9E1,2.452E1,2.193E1,1.7E1,3.31E2,1.396E1,-3.500651E-1,1.887E1,1.708E1,7.131E1,2.059E1,3.25E2,2.406E1,-2.570519E-2,6.316551E-2,-3.9907327E-1,-6.299164E-3,-6.1584574E-1,-1.8289083E-1,2.534392E-1,-4.7366017E-1,-2.4382411E-1,2.3626493E-1,5.144725E-3,-4.049962E-1,2.7591622E-1,-4.6730492E-1],"split_indices":[1,9,0,6,3,0,0,11,0,6,10,2,3,0,6,0,0,0,0,0,0,0,0,0,0,0,0,0,0],"split_type":[0,0,0,0,0,0,0,0,0,0,0,0,0,0,0,0,0,0,0,0,0,0,0,0,0,0,0,0,0],"sum_hessian":[2.170593E3,5.276369E2,1.6429562E3,4.5436002E2,7.327686E1,5.523737E1,1.5877189E3,4.4681577E2,7.5442557E0,4.7561867E1,2.5714994E1,5.9697213E0,4.926765E1,1.5645096E3,2.320915E1,2.8450153E2,1.6231424E2,7.5999093E0,3.9961956E1,1.5130339E1,1.0584656E1,1.832243E0,4.1374784E0,4.721765E0,4.4545883E1,1.5511863E3,1.3323366E1,2.1436161E1,1.7729894E0],"tree_param":{"num_deleted":"0","num_feature":"12","num_nodes":"29","size_leaf_vector":"1"}},{"base_weights":[-1.9746535E-3,4.4781682E-1,-7.0619173E-3,5.3668994E-1,-1.3266249E-1,-5.1649684E-1,2.27168E-3,-3.020906E-1,6.5815413E-1,-2.2915164E-1,-4.059963E-1,5.078812E-1,-5.6763114E-3,4.8312835E-2,-2.0118603E-1,2.9309264E-1,1.2446555E-1,4.8098028E-2,-4.1003236E-1,2.1348709E-1,-2.5737137E-1,-7.417663E-2,3.5514715E-3],"categories":[],"categories_nodes":[],"categories_segments":[],"categories_sizes":[],"default_left":[0,0,0,0,0,0,0,0,0,0,0,0,0,0,0,0,0,0,0,0,0,0,0],"id":47,"left_children":[1,3,5,7,-1,9,11,13,15,17,-1,19,21,-1,-1,-1,-1,-1,-1,-1,-1,-1,-1],"loss_changes":[4.9487724E0,2.1505456E0,1.0167819E1,2.4853897E0,0E0,8.941188E0,8.444654E0,7.095244E-1,1.1395721E0,1.3442158E1,0E0,9.660342E0,8.757864E0,0E0,0E0,0E0,0E0,0E0,0E0,0E0,0E0,0E0,0E0],"parents":[2147483647,0,0,1,1,2,2,3,3,5,5,6,6,7,7,8,8,9,9,11,11,12,12],"right_children":[2,4,6,8,-1,10,12,14,16,18,-1,20,22,-1,-1,-1,-1,-1,-1,-1,-1,-1,-1],"split_conditions":[1.802E1,1.861E1,1.909E1,7.27E0,-1.3266249E-1,1.834E1,7.56E0,6.76E0,1.834E1,2.97E2,-4.059963E-1,1.955E1,1.258E1,4.8312835E-2,-2.0118603E-1,2.9309264E-1,1.2446555E-1,4.8098028E-2,-4.1003236E-1,2.1348709E-1,-2.5737137E-1,-7.417663E-2,3.5514715E-3],"split_indices":[6,3,8,10,0,6,9,9,8,0,0,7,1,0,0,0,0,0,0,0,0,0,0],"split_type":[0,0,0,0,0,0,0,0,0,0,0,0,0,0,0,0,0,0,0,0,0,0,0],"sum_hessian":[2.1603462E3,2.3187546E1,2.1371587E3,2.1443327E1,1.7442199E0,3.7473778E1,2.099685E3,2.5243258E0,1.8919E1,2.8843466E1,8.630314E0,3.1521969E1,2.068163E3,1.3680726E0,1.1562531E0,6.8827024E0,1.2036298E1,2.2127073E1,6.7163925E0,2.7846851E1,3.6751163E0,1.3891965E2,1.9292434E3],"tree_param":{"num_deleted":"0","num_feature":"12","num_nodes":"23","size_leaf_vector":"1"}},{"base_weights":[-1.841631E-3,2.1976577E-2,-9.325814E-2,6.879555E-3,4.1759637E-1,-2.7876812E-1,9.8504454E-2,2.3107687E-2,-2.4261668E-1,7.314966E-1,-3.7095132E-1,-1.04668915E-1,-1.4831768E0,1.7965949E-1,-7.3799807E-1,-1.7226376E-2,2.4966808E-2,7.796587E-2,-1.5432353E-1,-1.66554E-1,2.8088027E-1,-4.6903232E-1,2.2140676E-3,-6.0280934E-2,3.2417527E-1,-4.6784455E-1,5.8052678E-2,6.737967E-2,-3.5163343E-1,1.1145386E-1,-3.496014E-1],"categories":[],"categories_nodes":[],"categories_segments":[],"categories_sizes":[],"default_left":[0,0,0,0,0,0,0,0,0,0,0,0,0,0,0,0,0,0,0,0,0,0,0,0,0,0,0,0,0,0,0],"id":48,"left_children":[1,3,5,7,9,11,13,15,17,19,21,23,25,27,29,-1,-1,-1,-1,-1,-1,-1,-1,-1,-1,-1,-1,-1,-1,-1,-1],"loss_changes":[4.6887016E0,1.020054E1,1.5860783E1,6.6723294E0,1.581055E1,4.7336845E1,1.5039905E1,7.4934325E0,1.3879574E1,1.243932E1,8.375248E0,2.291896E1,3.951725E0,1.2472115E1,9.733582E0,0E0,0E0,0E0,0E0,0E0,0E0,0E0,0E0,0E0,0E0,0E0,0E0,0E0,0E0,0E0,0E0],"parents":[2147483647,0,0,1,1,2,2,3,3,4,4,5,5,6,6,7,7,8,8,9,9,10,10,11,11,12,12,13,13,14,14],"right_children":[2,4,6,8,10,12,14,16,18,20,22,24,26,28,30,-1,-1,-1,-1,-1,-1,-1,-1,-1,-1,-1,-1,-1,-1,-1,-1],"split_conditions":[7.598E1,7.514E1,2.361E1,7.346E1,2.158E1,2.307E1,2.452E1,3.5E1,2.138E1,7E1,2.299E1,2.413E1,2.458E1,2.627E1,1.593E1,-1.7226376E-2,2.4966808E-2,7.796587E-2,-1.5432353E-1,-1.66554E-1,2.8088027E-1,-4.6903232E-1,2.2140676E-3,-6.0280934E-2,3.2417527E-1,-4.6784455E-1,5.8052678E-2,6.737967E-2,-3.5163343E-1,1.1145386E-1,-3.496014E-1],"split_indices":[2,2,6,2,1,6,6,4,6,0,7,8,7,8,11,0,0,0,0,0,0,0,0,0,0,0,0,0,0,0,0],"split_type":[0,0,0,0,0,0,0,0,0,0,0,0,0,0,0,0,0,0,0,0,0,0,0,0,0,0,0,0,0,0,0],"sum_hessian":[2.1514302E3,1.7073472E3,4.4408292E2,1.645569E3,6.177823E1,2.2549077E2,2.1859215E2,1.5459238E3,9.9645065E1,4.423985E1,1.7538378E1,1.9796194E2,2.7528814E1,1.9997626E2,1.8615889E1,6.607886E2,8.851353E2,3.4992916E1,6.4652145E1,5.839043E0,3.8400806E1,3.4696574E0,1.406872E1,1.8385918E2,1.4102771E1,2.6397388E1,1.131426E0,1.94349E2,5.6272526E0,5.212697E0,1.3403191E1],"tree_param":{"num_deleted":"0","num_feature":"12","num_nodes":"31","size_leaf_vector":"1"}},{"base_weights":[-1.7924402E-3,9.259453E-3,-1.9929586E-1,-3.3386637E-2,6.968367E-2,-7.1806175E-1,6.005877E-2,9.154059E-3,-3.0742046E-1,7.571773E-1,2.448006E-2,-2.0133138E-1,-1.3904618E0,6.2119424E-1,-7.65734E-2,5.016362E-3,-3.5514018E-1,2.857572E-1,4.7365043E-2,-2.7795887E-1,1.341552E-2,-2.590236E-1,1.8455411E-1,-5.4134506E-1,5.401085E-2,2.712273E-1,-2.2061168E-1,1.3206334E-1,-1.17565446E-1],"categories":[],"categories_nodes":[],"categories_segments":[],"categories_sizes":[],"default_left":[0,0,0,0,0,0,0,0,0,0,0,0,0,0,0,0,0,0,0,0,0,0,0,0,0,0,0,0,0],"id":49,"left_children":[1,3,5,7,9,11,13,15,-1,17,19,21,23,25,27,-1,-1,-1,-1,-1,-1,-1,-1,-1,-1,-1,-1,-1,-1],"loss_changes":[4.657943E0,5.2101912E0,1.5257779E1,5.0004257E1,2.5978577E1,1.2842785E1,5.898506E0,1.0290059E1,0E0,5.887657E0,1.5168633E1,1.2708543E1,1.0886326E1,6.441728E0,1.0317831E1,0E0,0E0,0E0,0E0,0E0,0E0,0E0,0E0,0E0,0E0,0E0,0E0,0E0,0E0],"parents":[2147483647,0,0,1,1,2,2,3,3,4,4,5,5,6,6,7,7,9,9,10,10,11,11,12,12,13,13,14,14],"right_children":[2,4,6,8,10,12,14,16,-1,18,20,22,24,26,28,-1,-1,-1,-1,-1,-1,-1,-1,-1,-1,-1,-1,-1,-1],"split_conditions":[2.495E1,3.8E1,2.835E1,2.201E1,2.273E1,2.74E1,2.5E1,8.574E1,-3.0742046E-1,2.259E1,2.324E1,2.621E1,2.415E1,2.537E1,5.363E1,5.016362E-3,-3.5514018E-1,2.857572E-1,4.7365043E-2,-2.7795887E-1,1.341552E-2,-2.590236E-1,1.8455411E-1,-5.4134506E-1,5.401085E-2,2.712273E-1,-2.2061168E-1,1.3206334E-1,-1.17565446E-1],"split_indices":[6,4,8,6,6,8,1,2,0,3,7,7,3,6,2,0,0,0,0,0,0,0,0,0,0,0,0,0,0],"split_type":[0,0,0,0,0,0,0,0,0,0,0,0,0,0,0,0,0,0,0,0,0,0,0,0,0,0,0,0,0],"sum_hessian":[2.1320974E3,2.0200146E3,1.1208283E2,1.1844812E3,8.3553345E2,3.676872E1,7.531412E1,1.1366942E3,4.778701E1,5.0576355E1,7.849571E2,2.1525831E1,1.52428875E1,1.4053058E1,6.126106E1,1.1305092E3,6.1850595E0,3.7698643E1,1.2877712E1,1.5423391E1,7.695337E2,1.1855326E1,9.670506E0,1.1944925E1,3.2979622E0,1.190413E1,2.148928E0,2.3063938E1,3.819712E1],"tree_param":{"num_deleted":"0","num_feature":"12","num_nodes":"29","size_leaf_vector":"1"}},{"base_weights":[-2.1770818E-3,4.7300835E-4,-8.3259153E-1,-4.2734086E-3,8.7776434E-1,8.456537E-2,-3.4001124E-1,4.340528E-3,-3.085147E-1,1.2230161E0,-2.1618804E-1,4.4535212E-2,-3.7238665E-3,-1.1620689E-2,-3.9054915E-1,1.1313775E-1,4.7125274E-1],"categories":[],"categories_nodes":[],"categories_segments":[],"categories_sizes":[],"default_left":[0,0,0,0,0,0,0,0,0,0,0,0,0,0,0,0,0],"id":50,"left_children":[1,3,5,7,9,-1,-1,11,13,15,-1,-1,-1,-1,-1,-1,-1],"loss_changes":[4.627281E0,8.7348E0,2.5616612E0,5.4694886E0,7.1106606E0,0E0,0E0,4.903064E0,1.5348102E1,2.2479525E0,0E0,0E0,0E0,0E0,0E0,0E0,0E0],"parents":[2147483647,0,0,1,1,2,2,3,3,4,4,7,7,8,8,9,9],"right_children":[2,4,6,8,10,-1,-1,12,14,16,-1,-1,-1,-1,-1,-1,-1],"split_conditions":[3.55E2,3.48E2,5.81E0,3.25E2,1.392E1,8.456537E-2,-3.4001124E-1,1.277E1,1.786E1,1.032E1,-2.1618804E-1,4.4535212E-2,-3.7238665E-3,-1.1620689E-2,-3.9054915E-1,1.1313775E-1,4.7125274E-1],"split_indices":[0,0,1,0,10,0,0,9,11,10,0,0,0,0,0,0,0],"split_type":[0,0,0,0,0,0,0,0,0,0,0,0,0,0,0,0,0],"sum_hessian":[2.1014873E3,2.0957983E3,5.6888623E0,2.0855103E3,1.0288125E1,1.2223846E0,4.466478E0,2.0290479E3,5.6462383E1,8.653762E0,1.6343635E0,2.105E2,1.8185479E3,4.5219906E1,1.124248E1,3.1288474E0,5.5249147E0],"tree_param":{"num_deleted":"0","num_feature":"12","num_nodes":"17","size_leaf_vector":"1"}},{"base_weights":[-1.8031193E-3,-7.934459E-2,2.3092905E-2,3.4641054E-2,-3.9282247E-1,2.838651E-1,5.7246145E-3,-2.6218586E-2,6.046278E-1,-2.4089733E-1,-1.5658101E0,-1.7127393E-1,5.376819E-1,-3.2561303E-3,6.706432E-1,1.0060668E-2,-1.9512147E-1,-8.182699E-2,2.2111933E-1,-1.3071136E-1,9.3025774E-2,9.709712E-3,-5.4684216E-1,5.9120864E-2,-2.744581E-1,5.9429493E-2,3.1368512E-1,1.2381002E-3,-2.777128E-1,2.6706663E-1,-3.9240167E-1],"categories":[],"categories_nodes":[],"categories_segments":[],"categories_sizes":[],"default_left":[0,0,0,0,0,0,0,0,0,0,0,0,0,0,0,0,0,0,0,0,0,0,0,0,0,0,0,0,0,0,0],"id":51,"left_children":[1,3,5,7,9,11,13,15,17,19,21,23,25,27,29,-1,-1,-1,-1,-1,-1,-1,-1,-1,-1,-1,-1,-1,-1,-1,-1],"loss_changes":[4.056353E0,1.8260769E1,7.202487E0,1.3038657E1,2.3904037E1,1.1563833E1,8.913402E0,1.2708821E1,4.4142437E0,1.3209795E1,6.401478E0,1.0125586E1,1.083079E1,1.0038606E1,9.80689E0,0E0,0E0,0E0,0E0,0E0,0E0,0E0,0E0,0E0,0E0,0E0,0E0,0E0,0E0,0E0,0E0],"parents":[2147483647,0,0,1,1,2,2,3,3,4,4,5,5,6,6,7,7,8,8,9,9,10,10,11,11,12,12,13,13,14,14],"right_children":[2,4,6,8,10,12,14,16,18,20,22,24,26,28,30,-1,-1,-1,-1,-1,-1,-1,-1,-1,-1,-1,-1,-1,-1,-1,-1],"split_conditions":[1.577E1,1.456E1,1.537E1,1.493E1,2.352E1,6.061E1,3.31E2,8.043E1,5E1,7.799E1,1.372E1,4.871E1,1.614E1,3.25E2,2.406E1,1.0060668E-2,-1.9512147E-1,-8.182699E-2,2.2111933E-1,-1.3071136E-1,9.3025774E-2,9.709712E-3,-5.4684216E-1,5.9120864E-2,-2.744581E-1,5.9429493E-2,3.1368512E-1,1.2381002E-3,-2.777128E-1,2.6706663E-1,-3.9240167E-1],"split_indices":[1,9,10,1,3,2,0,2,0,2,1,2,9,0,6,0,0,0,0,0,0,0,0,0,0,0,0,0,0,0,0],"split_type":[0,0,0,0,0,0,0,0,0,0,0,0,0,0,0,0,0,0,0,0,0,0,0,0,0,0,0,0,0,0,0],"sum_hessian":[2.0992715E3,5.096675E2,1.589604E3,3.74414E2,1.3525352E2,9.830359E1,1.4913004E3,3.3915512E2,3.5258877E1,1.2081142E2,1.44421015E1,3.531058E1,6.2993008E1,1.4724083E3,1.8892029E1,3.103876E2,2.8767527E1,4.485199E0,3.0773676E1,8.940896E1,3.1402464E1,2.121748E0,1.23203535E1,2.4104925E1,1.1205657E1,3.858604E1,2.4406963E1,1.4617047E3,1.0703666E1,1.7500061E1,1.3919679E0],"tree_param":{"num_deleted":"0","num_feature":"12","num_nodes":"31","size_leaf_vector":"1"}},{"base_weights":[-1.578763E-3,3.5578755E-4,-2.715515E-1,-5.840233E-2,3.0309668E-2,-1.0665924E-2,-2.9776865E-1,7.254834E-1,4.1109617E-3,1.4662725E-3,-1.9627611E-1,2.6866275E-1,9.47614E-3,-4.3998805E-1,5.8972645E-3],"categories":[],"categories_nodes":[],"categories_segments":[],"categories_sizes":[],"default_left":[0,0,0,0,0,0,0,0,0,0,0,0,0,0,0],"id":52,"left_children":[1,3,-1,5,7,9,-1,11,13,-1,-1,-1,-1,-1,-1],"loss_changes":[3.6555328E0,3.6759443E0,0E0,3.143726E1,2.519143E1,6.7293286E0,0E0,5.8995495E0,3.0533236E1,0E0,0E0,0E0,0E0,0E0,0E0],"parents":[2147483647,0,0,1,1,3,3,4,4,5,5,7,7,8,8],"right_children":[2,4,-1,6,8,10,-1,12,14,-1,-1,-1,-1,-1,-1],"split_conditions":[9.177E1,3.5E1,-2.715515E-1,2.009E1,2.042E1,1.973E1,-2.9776865E-1,2.044E1,2.114E1,1.4662725E-3,-1.9627611E-1,2.6866275E-1,9.47614E-3,-4.3998805E-1,5.8972645E-3],"split_indices":[2,4,0,6,6,3,0,3,8,0,0,0,0,0,0],"split_type":[0,0,0,0,0,0,0,0,0,0,0,0,0,0,0],"sum_hessian":[2.0900266E3,2.086559E3,3.4676201E0,7.0421246E2,1.3823466E3,6.7093835E2,3.327413E1,4.9234497E1,1.333112E3,6.5607544E2,1.4862882E1,3.9309887E1,9.924609E0,1.2968083E1,1.320144E3],"tree_param":{"num_deleted":"0","num_feature":"12","num_nodes":"15","size_leaf_vector":"1"}},{"base_weights":[-2.0638327E-3,-1.1607114E-2,1.97398E-1,-4.1786246E-3,-5.557656E-1,-6.410048E-1,2.6499155E-1,-1.6739456E-1,1.2469457E-2,2.1442454E-1,-6.8591344E-1,4.529349E-1,-1.12339E-2,2.8781764E-2,-1.03432E-1,6.1874464E-2,-6.1719823E-3,-3.2480565E-1,-2.7933097E-2,1.6497934E-1,-8.6339615E-2,-2.045183E-1,5.649922E-2],"categories":[],"categories_nodes":[],"categories_segments":[],"categories_sizes":[],"default_left":[0,0,0,0,0,0,0,0,0,0,0,0,0,0,0,0,0,0,0,0,0,0,0],"id":53,"left_children":[1,3,5,7,9,-1,11,13,15,-1,17,19,21,-1,-1,-1,-1,-1,-1,-1,-1,-1,-1],"loss_changes":[3.939229E0,7.9801536E0,1.5474164E1,5.298409E0,4.886591E0,0E0,4.8187623E0,8.463367E0,1.1335456E1,0E0,5.691683E0,4.124528E0,5.282562E0,0E0,0E0,0E0,0E0,0E0,0E0,0E0,0E0,0E0,0E0],"parents":[2147483647,0,0,1,1,2,2,3,3,4,4,6,6,7,7,8,8,10,10,11,11,12,12],"right_children":[2,4,6,8,10,-1,12,14,16,-1,18,20,22,-1,-1,-1,-1,-1,-1,-1,-1,-1,-1],"split_conditions":[3.058E1,3.135E1,2.912E1,1.887E1,1.887E1,-6.410048E-1,3.271E1,1.834E1,1.93E1,2.1442454E-1,2.653E1,5.836E1,3.271E1,2.8781764E-2,-1.03432E-1,6.1874464E-2,-6.1719823E-3,-3.2480565E-1,-2.7933097E-2,1.6497934E-1,-8.6339615E-2,-2.045183E-1,5.649922E-2],"split_indices":[1,11,9,6,6,0,9,6,6,0,8,2,10,0,0,0,0,0,0,0,0,0,0],"split_type":[0,0,0,0,0,0,0,0,0,0,0,0,0,0,0,0,0,0,0,0,0,0,0],"sum_hessian":[2.0672402E3,1.9737478E3,9.3492455E1,1.9481605E3,2.558731E1,1.769765E0,9.1722694E1,1.794822E2,1.7686783E3,1.9601673E0,2.3627144E1,5.4203197E1,3.7519493E1,7.24231E1,1.0705909E2,2.5689258E2,1.5117858E3,1.3658753E1,9.96839E0,4.8155064E1,6.0481343E0,8.051644E0,2.946785E1],"tree_param":{"num_deleted":"0","num_feature":"12","num_nodes":"23","size_leaf_vector":"1"}},{"base_weights":[-1.2607363E-3,-5.6874383E-2,3.4268185E-2,1.2972563E-2,-1.418709E0,4.9094042E-1,-9.256997E-3,-3.2581992E-2,3.369772E-1,-9.8984885E-1,-1.6087584E0,6.4111036E-1,-2.1495247E0,-4.3404084E-1,5.7216743E-3,3.0202686E-3,-1.2241567E-1,-1.9827848E-2,2.7151626E-1,-3.864011E-1,2.1659373E-1,-2.329713E-1,-5.0839496E-1,-4.0461272E-1,2.325953E-1,-1.0164748E0,7.49342E-2,1.1001119E-1,-4.4369376E-3],"categories":[],"categories_nodes":[],"categories_segments":[],"categories_sizes":[],"default_left":[0,0,0,0,0,0,0,0,0,0,0,0,0,0,0,0,0,0,0,0,0,0,0,0,0,0,0,0,0],"id":54,"left_children":[1,3,5,7,9,11,13,15,17,19,21,23,25,-1,27,-1,-1,-1,-1,-1,-1,-1,-1,-1,-1,-1,-1,-1,-1],"loss_changes":[4.0772004E0,7.6529884E1,2.5031708E1,1.1318773E1,1.6067505E0,4.482934E1,2.4782223E1,1.0774741E1,2.170372E1,8.40832E0,5.137558E-1,2.8940289E1,1.905496E1,0E0,8.443837E0,0E0,0E0,0E0,0E0,0E0,0E0,0E0,0E0,0E0,0E0,0E0,0E0,0E0,0E0],"parents":[2147483647,0,0,1,1,2,2,3,3,4,4,5,5,6,6,7,7,8,8,9,9,10,10,11,11,12,12,14,14],"right_children":[2,4,6,8,10,12,14,16,18,20,22,24,26,-1,28,-1,-1,-1,-1,-1,-1,-1,-1,-1,-1,-1,-1,-1,-1],"split_conditions":[2.114E1,2.075E1,2.138E1,3.5E1,2.088E1,2.854E1,2.169E1,1.971E1,2.439E1,2.957E1,3.5E1,2.138E1,2.21E1,-4.3404084E-1,1.277E1,3.0202686E-3,-1.2241567E-1,-1.9827848E-2,2.7151626E-1,-3.864011E-1,2.1659373E-1,-2.329713E-1,-5.0839496E-1,-4.0461272E-1,2.325953E-1,-1.0164748E0,7.49342E-2,1.1001119E-1,-4.4369376E-3],"split_indices":[6,6,6,4,6,9,8,6,9,1,4,7,7,0,9,0,0,0,0,0,0,0,0,0,0,0,0,0,0],"split_type":[0,0,0,0,0,0,0,0,0,0,0,0,0,0,0,0,0,0,0,0,0,0,0,0,0,0,0,0,0],"sum_hessian":[2.0614858E3,8.0336804E2,1.2581179E3,7.651166E2,3.8251484E1,1.0858192E2,1.149536E3,6.715913E2,9.352526E1,1.3652353E1,2.4599129E1,1.0345535E2,5.1265697E0,1.0868457E1,1.1386675E3,6.0396075E2,6.763054E1,5.5224934E1,3.8300323E1,1.1838064E1,1.8142889E0,3.2408042E0,2.1358324E1,5.9650645E0,9.749029E1,3.1091723E0,2.0173976E0,6.031435E1,1.0783531E3],"tree_param":{"num_deleted":"0","num_feature":"12","num_nodes":"29","size_leaf_vector":"1"}},{"base_weights":[-1.8144731E-3,-1.9097064E-2,1.1594024E-1,-2.8399779E-3,-3.628898E-1,1.8603903E-1,-6.712201E-1,1.0368763E-2,-4.2632553E-1,-1.5467064E-1,-1.2037547E0,5.678287E-1,3.5176042E-2,-1.5693442E0,2.529805E-1,4.8839645E-3,-2.4443512E-1,-6.149434E-1,-3.4894343E-2,-2.9800523E-3,-3.8300717E-1,-5.80839E-1,-1.7486942E-1,1.9269507E-1,-8.219667E-2,2.7495475E-2,-2.552686E-1,1.2646557E-1,-6.095588E-1,2.8264228E-1,-1.4629774E-1],"categories":[],"categories_nodes":[],"categories_segments":[],"categories_sizes":[],"default_left":[0,0,0,0,0,0,0,0,0,0,0,0,0,0,0,0,0,0,0,0,0,0,0,0,0,0,0,0,0,0,0],"id":55,"left_children":[1,3,5,7,9,11,13,15,17,19,21,23,25,27,29,-1,-1,-1,-1,-1,-1,-1,-1,-1,-1,-1,-1,-1,-1,-1,-1],"loss_changes":[4.153332E0,9.945038E0,1.4537462E1,9.514928E0,1.3880651E1,1.3839339E1,1.8305534E1,8.060111E0,2.5656445E1,1.0631595E1,6.055174E0,4.4452953E0,8.761991E0,1.1060068E1,6.3264427E0,0E0,0E0,0E0,0E0,0E0,0E0,0E0,0E0,0E0,0E0,0E0,0E0,0E0,0E0,0E0,0E0],"parents":[2147483647,0,0,1,1,2,2,3,3,4,4,5,5,6,6,7,7,8,8,9,9,10,10,11,11,12,12,13,13,14,14],"right_children":[2,4,6,8,10,12,14,16,18,20,22,24,26,28,30,-1,-1,-1,-1,-1,-1,-1,-1,-1,-1,-1,-1,-1,-1,-1,-1],"split_conditions":[2.843E1,2.768E1,2.43E2,2.777E1,6.746E1,2.912E1,2.924E1,2.502E1,2.653E1,2.843E1,2.758E1,3.135E1,6.787E1,1.861E1,2.854E1,4.8839645E-3,-2.4443512E-1,-6.149434E-1,-3.4894343E-2,-2.9800523E-3,-3.8300717E-1,-5.80839E-1,-1.7486942E-1,1.9269507E-1,-8.219667E-2,2.7495475E-2,-2.552686E-1,1.2646557E-1,-6.095588E-1,2.8264228E-1,-1.4629774E-1],"split_indices":[10,9,0,8,2,10,10,6,7,11,11,11,2,3,9,0,0,0,0,0,0,0,0,0,0,0,0,0,0,0,0],"split_type":[0,0,0,0,0,0,0,0,0,0,0,0,0,0,0,0,0,0,0,0,0,0,0,0,0,0,0,0,0,0,0],"sum_hessian":[2.0387546E3,1.7785576E3,2.6019702E2,1.6992144E3,7.934328E1,2.396217E2,2.0575314E1,1.648764E3,5.0450314E1,6.454441E1,1.4798866E1,6.7085144E1,1.7253656E2,1.0080846E1,1.0494468E1,1.6380101E3,1.0753892E1,7.1892314E0,4.326108E1,5.806328E1,6.4811325E0,5.8177037E0,8.981163E0,6.1849396E1,5.2357507E0,1.6304137E2,9.495205E0,1.9171424E0,8.163704E0,5.2952285E0,5.1992393E0],"tree_param":{"num_deleted":"0","num_feature":"12","num_nodes":"31","size_leaf_vector":"1"}},{"base_weights":[-1.7800179E-3,-1.195326E-1,1.5407305E-2,-5.685188E-2,-8.285885E-1,4.4231915E-1,-2.0708027E-3,3.1405172E-1,-1.5977085E-1,-4.1713095E-1,3.595631E-2,-9.96845E-1,6.196257E-1,-2.1118712E-1,2.0571187E-2,1.7483294E-1,-1.6507792E-1,4.1516483E-2,-9.369316E-2,2.6033035E-1,-3.693639E-1,-7.1730234E-2,-4.8874673E-1,-5.148187E-2,2.266504E-1,5.0207876E-2,-1.3192725E-1,2.3480725E-2,-1.4255748E-2],"categories":[],"categories_nodes":[],"categories_segments":[],"categories_sizes":[],